-1.000000000000000000e+00,-1.000000000000000000e+00,1.948046535253524780e-01
1.000000000000000000e+00,-1.000000000000000000e+00,2.071828246116638184e-01
-1.000000000000000000e+00,1.000000000000000000e+00,1.999292820692062378e-01
1.000000000000000000e+00,1.000000000000000000e+00,2.487272620201110840e-01
-1.000000000000000000e+00,0.000000000000000000e+00,3.663541376590728760e-01
0.000000000000000000e+00,-1.000000000000000000e+00,2.244445383548736572e-01
1.000000000000000000e+00,0.000000000000000000e+00,3.340539336204528809e-01
0.000000000000000000e+00,1.000000000000000000e+00,4.399423003196716309e-01
0.000000000000000000e+00,0.000000000000000000e+00,6.513015031814575195e-01
-1.000000000000000000e+00,-5.000000000000000000e-01,2.207503467798233032e-01
5.000000000000000000e-01,-1.000000000000000000e+00,4.292856454849243164e-01
1.000000000000000000e+00,5.000000000000000000e-01,7.484000921249389648e-01
-5.000000000000000000e-01,1.000000000000000000e+00,2.070568948984146118e-01
-1.000000000000000000e+00,5.000000000000000000e-01,3.102019727230072021e-01
-5.000000000000000000e-01,-1.000000000000000000e+00,2.332235872745513916e-01
1.000000000000000000e+00,-5.000000000000000000e-01,3.574919700622558594e-01
5.000000000000000000e-01,1.000000000000000000e+00,7.628703713417053223e-01
0.000000000000000000e+00,5.000000000000000000e-01,9.998880624771118164e-01
0.000000000000000000e+00,-5.000000000000000000e-01,9.958459734916687012e-01
-5.000000000000000000e-01,0.000000000000000000e+00,9.756437540054321289e-01
5.000000000000000000e-01,0.000000000000000000e+00,8.635092973709106445e-01
5.000000000000000000e-01,-5.000000000000000000e-01,9.988244771957397461e-01
-5.000000000000000000e-01,-5.000000000000000000e-01,9.974864721298217773e-01
-5.000000000000000000e-01,5.000000000000000000e-01,9.990609288215637207e-01
5.000000000000000000e-01,5.000000000000000000e-01,9.427233338356018066e-01
-1.000000000000000000e+00,-7.500000000000000000e-01,1.992981433868408203e-01
7.500000000000000000e-01,-1.000000000000000000e+00,3.429531455039978027e-01
1.000000000000000000e+00,7.500000000000000000e-01,5.791518092155456543e-01
-7.500000000000000000e-01,1.000000000000000000e+00,2.007198333740234375e-01
-1.000000000000000000e+00,2.500000000000000000e-01,3.863080143928527832e-01
-2.500000000000000000e-01,-1.000000000000000000e+00,2.726503908634185791e-01
1.000000000000000000e+00,-2.500000000000000000e-01,2.367047965526580811e-01
2.500000000000000000e-01,1.000000000000000000e+00,7.391681671142578125e-01
0.000000000000000000e+00,7.500000000000000000e-01,9.337015151977539062e-01
0.000000000000000000e+00,-2.500000000000000000e-01,9.520963430404663086e-01
-7.500000000000000000e-01,0.000000000000000000e+00,9.711357951164245605e-01
2.500000000000000000e-01,0.000000000000000000e+00,4.237175583839416504e-01
-1.000000000000000000e+00,-2.500000000000000000e-01,2.762956023216247559e-01
2.500000000000000000e-01,-1.000000000000000000e+00,2.743280827999114990e-01
1.000000000000000000e+00,2.500000000000000000e-01,6.231821179389953613e-01
-2.500000000000000000e-01,1.000000000000000000e+00,2.202179729938507080e-01
-1.000000000000000000e+00,7.500000000000000000e-01,2.036672532558441162e-01
-7.500000000000000000e-01,-1.000000000000000000e+00,1.987829357385635376e-01
1.000000000000000000e+00,-7.500000000000000000e-01,3.176161348819732666e-01
7.500000000000000000e-01,1.000000000000000000e+00,5.200429558753967285e-01
0.000000000000000000e+00,2.500000000000000000e-01,9.858222007751464844e-01
0.000000000000000000e+00,-7.500000000000000000e-01,7.197386622428894043e-01
-2.500000000000000000e-01,0.000000000000000000e+00,7.475832700729370117e-01
7.500000000000000000e-01,0.000000000000000000e+00,8.172153234481811523e-01
5.000000000000000000e-01,-2.500000000000000000e-01,8.635072112083435059e-01
5.000000000000000000e-01,-7.500000000000000000e-01,9.550889730453491211e-01
2.500000000000000000e-01,-5.000000000000000000e-01,9.956110119819641113e-01
7.500000000000000000e-01,-5.000000000000000000e-01,9.177032709121704102e-01
-5.000000000000000000e-01,-2.500000000000000000e-01,9.985694289207458496e-01
-5.000000000000000000e-01,-7.500000000000000000e-01,7.572634220123291016e-01
-7.500000000000000000e-01,-5.000000000000000000e-01,7.467892765998840332e-01
-2.500000000000000000e-01,-5.000000000000000000e-01,9.997388124465942383e-01
-5.000000000000000000e-01,7.500000000000000000e-01,7.096447348594665527e-01
-5.000000000000000000e-01,2.500000000000000000e-01,9.625465273857116699e-01
-7.500000000000000000e-01,5.000000000000000000e-01,9.292818903923034668e-01
-2.500000000000000000e-01,5.000000000000000000e-01,9.471461772918701172e-01
5.000000000000000000e-01,7.500000000000000000e-01,9.996423721313476562e-01
5.000000000000000000e-01,2.500000000000000000e-01,9.926512837409973145e-01
2.500000000000000000e-01,5.000000000000000000e-01,9.412648677825927734e-01
7.500000000000000000e-01,5.000000000000000000e-01,9.972574114799499512e-01
7.500000000000000000e-01,2.500000000000000000e-01,9.862278103828430176e-01
2.500000000000000000e-01,2.500000000000000000e-01,6.331027746200561523e-01
2.500000000000000000e-01,7.500000000000000000e-01,9.995561242103576660e-01
-2.500000000000000000e-01,2.500000000000000000e-01,9.994807243347167969e-01
-7.500000000000000000e-01,2.500000000000000000e-01,9.761527776718139648e-01
-7.500000000000000000e-01,7.500000000000000000e-01,4.742300510406494141e-01
-2.500000000000000000e-01,-7.500000000000000000e-01,8.861241936683654785e-01
-7.500000000000000000e-01,-7.500000000000000000e-01,3.242962956428527832e-01
-7.500000000000000000e-01,-2.500000000000000000e-01,9.058093428611755371e-01
7.500000000000000000e-01,-7.500000000000000000e-01,8.494122624397277832e-01
2.500000000000000000e-01,-7.500000000000000000e-01,7.162055969238281250e-01
2.500000000000000000e-01,-2.500000000000000000e-01,9.519556164741516113e-01
7.500000000000000000e-01,-2.500000000000000000e-01,5.294241309165954590e-01
-2.500000000000000000e-01,-2.500000000000000000e-01,7.940492033958435059e-01
-2.500000000000000000e-01,7.500000000000000000e-01,4.842691421508789062e-01
7.500000000000000000e-01,7.500000000000000000e-01,9.552873969078063965e-01
-1.000000000000000000e+00,-8.750000000000000000e-01,1.994877457618713379e-01
8.750000000000000000e-01,-1.000000000000000000e+00,2.585267722606658936e-01
1.000000000000000000e+00,8.750000000000000000e-01,3.731447458267211914e-01
-8.750000000000000000e-01,1.000000000000000000e+00,1.999597847461700439e-01
-1.000000000000000000e+00,1.250000000000000000e-01,3.854464590549468994e-01
-1.250000000000000000e-01,-1.000000000000000000e+00,2.579817771911621094e-01
1.000000000000000000e+00,-1.250000000000000000e-01,2.449288368225097656e-01
1.250000000000000000e-01,1.000000000000000000e+00,6.512430906295776367e-01
0.000000000000000000e+00,8.750000000000000000e-01,7.737932205200195312e-01
0.000000000000000000e+00,-1.250000000000000000e-01,7.535458803176879883e-01
-8.750000000000000000e-01,0.000000000000000000e+00,7.667681574821472168e-01
1.250000000000000000e-01,0.000000000000000000e+00,4.519383311271667480e-01
-1.000000000000000000e+00,-3.750000000000000000e-01,2.480919361114501953e-01
3.750000000000000000e-01,-1.000000000000000000e+00,3.621592223644256592e-01
1.000000000000000000e+00,3.750000000000000000e-01,7.416883111000061035e-01
-3.750000000000000000e-01,1.000000000000000000e+00,2.054739594459533691e-01
-1.000000000000000000e+00,6.250000000000000000e-01,2.470001876354217529e-01
-6.250000000000000000e-01,-1.000000000000000000e+00,2.072318047285079956e-01
1.000000000000000000e+00,-6.250000000000000000e-01,3.662581443786621094e-01
6.250000000000000000e-01,1.000000000000000000e+00,6.934334635734558105e-01
0.000000000000000000e+00,3.750000000000000000e-01,9.996250271797180176e-01
0.000000000000000000e+00,-6.250000000000000000e-01,9.230985045433044434e-01
-3.750000000000000000e-01,0.000000000000000000e+00,8.099799752235412598e-01
6.250000000000000000e-01,0.000000000000000000e+00,8.922600746154785156e-01
5.000000000000000000e-01,-1.250000000000000000e-01,5.604458451271057129e-01
5.000000000000000000e-01,-6.250000000000000000e-01,9.982840418815612793e-01
1.250000000000000000e-01,-5.000000000000000000e-01,9.891335964202880859e-01
6.250000000000000000e-01,-5.000000000000000000e-01,9.907807111740112305e-01
-5.000000000000000000e-01,-1.250000000000000000e-01,9.918428063392639160e-01
-5.000000000000000000e-01,-6.250000000000000000e-01,9.415853619575500488e-01
-8.750000000000000000e-01,-5.000000000000000000e-01,3.808941245079040527e-01
-3.750000000000000000e-01,-5.000000000000000000e-01,9.997258186340332031e-01
-5.000000000000000000e-01,8.750000000000000000e-01,3.299301266670227051e-01
-5.000000000000000000e-01,3.750000000000000000e-01,9.830268621444702148e-01
-8.750000000000000000e-01,5.000000000000000000e-01,6.623200774192810059e-01
-3.750000000000000000e-01,5.000000000000000000e-01,9.955427646636962891e-01
5.000000000000000000e-01,8.750000000000000000e-01,9.578695893287658691e-01
5.000000000000000000e-01,3.750000000000000000e-01,9.620939493179321289e-01
1.250000000000000000e-01,5.000000000000000000e-01,9.939004182815551758e-01
6.250000000000000000e-01,5.000000000000000000e-01,9.952375292778015137e-01
-1.000000000000000000e+00,-6.250000000000000000e-01,2.033318728208541870e-01
6.250000000000000000e-01,-1.000000000000000000e+00,4.204207062721252441e-01
1.000000000000000000e+00,6.250000000000000000e-01,7.206309437751770020e-01
-6.250000000000000000e-01,1.000000000000000000e+00,2.058234214782714844e-01
-1.000000000000000000e+00,3.750000000000000000e-01,3.704414963722229004e-01
-3.750000000000000000e-01,-1.000000000000000000e+00,2.535040974617004395e-01
1.000000000000000000e+00,-3.750000000000000000e-01,2.994842529296875000e-01
3.750000000000000000e-01,1.000000000000000000e+00,8.111926317214965820e-01
0.000000000000000000e+00,6.250000000000000000e-01,9.935956597328186035e-01
0.000000000000000000e+00,-3.750000000000000000e-01,9.970788359642028809e-01
-6.250000000000000000e-01,0.000000000000000000e+00,9.999960064888000488e-01
3.750000000000000000e-01,0.000000000000000000e+00,7.048049569129943848e-01
-1.000000000000000000e+00,-1.250000000000000000e-01,3.239530920982360840e-01
1.250000000000000000e-01,-1.000000000000000000e+00,2.150272876024246216e-01
1.000000000000000000e+00,1.250000000000000000e-01,4.787917435169219971e-01
-1.250000000000000000e-01,1.000000000000000000e+00,3.044647872447967529e-01
-1.000000000000000000e+00,8.750000000000000000e-01,1.998608261346817017e-01
-8.750000000000000000e-01,-1.000000000000000000e+00,1.959333866834640503e-01
1.000000000000000000e+00,-8.750000000000000000e-01,2.513075172901153564e-01
8.750000000000000000e-01,1.000000000000000000e+00,3.660761713981628418e-01
0.000000000000000000e+00,1.250000000000000000e-01,9.141962528228759766e-01
0.000000000000000000e+00,-8.750000000000000000e-01,3.777999877929687500e-01
-1.250000000000000000e-01,0.000000000000000000e+00,7.121033668518066406e-01
8.750000000000000000e-01,0.000000000000000000e+00,5.884635448455810547e-01
5.000000000000000000e-01,-3.750000000000000000e-01,9.815933108329772949e-01
5.000000000000000000e-01,-8.750000000000000000e-01,7.754676938056945801e-01
3.750000000000000000e-01,-5.000000000000000000e-01,9.982379674911499023e-01
8.750000000000000000e-01,-5.000000000000000000e-01,6.813003420829772949e-01
-5.000000000000000000e-01,-3.750000000000000000e-01,1.000000000000000000e+00
-5.000000000000000000e-01,-8.750000000000000000e-01,4.111568629741668701e-01
-6.250000000000000000e-01,-5.000000000000000000e-01,9.411849975585937500e-01
-1.250000000000000000e-01,-5.000000000000000000e-01,1.000000000000000000e+00
-5.000000000000000000e-01,6.250000000000000000e-01,9.540044665336608887e-01
-5.000000000000000000e-01,1.250000000000000000e-01,9.691163897514343262e-01
-6.250000000000000000e-01,5.000000000000000000e-01,9.933015704154968262e-01
-1.250000000000000000e-01,5.000000000000000000e-01,9.713476300239562988e-01
5.000000000000000000e-01,6.250000000000000000e-01,9.956650733947753906e-01
5.000000000000000000e-01,1.250000000000000000e-01,9.755859375000000000e-01
3.750000000000000000e-01,5.000000000000000000e-01,8.724999427795410156e-01
8.750000000000000000e-01,5.000000000000000000e-01,9.464859962463378906e-01
7.500000000000000000e-01,3.750000000000000000e-01,9.958241581916809082e-01
7.500000000000000000e-01,1.250000000000000000e-01,9.462788701057434082e-01
6.250000000000000000e-01,2.500000000000000000e-01,9.998664855957031250e-01
8.750000000000000000e-01,2.500000000000000000e-01,8.957682847976684570e-01
2.500000000000000000e-01,3.750000000000000000e-01,8.050603866577148438e-01
2.500000000000000000e-01,1.250000000000000000e-01,5.734626650810241699e-01
1.250000000000000000e-01,2.500000000000000000e-01,8.988801240921020508e-01
3.750000000000000000e-01,2.500000000000000000e-01,9.018042683601379395e-01
2.500000000000000000e-01,8.750000000000000000e-01,9.524179100990295410e-01
2.500000000000000000e-01,6.250000000000000000e-01,9.953157901763916016e-01
1.250000000000000000e-01,7.500000000000000000e-01,9.885913133621215820e-01
3.750000000000000000e-01,7.500000000000000000e-01,1.000000000000000000e+00
-2.500000000000000000e-01,3.750000000000000000e-01,9.959656000137329102e-01
-2.500000000000000000e-01,1.250000000000000000e-01,9.599058032035827637e-01
-3.750000000000000000e-01,2.500000000000000000e-01,9.882526993751525879e-01
-1.250000000000000000e-01,2.500000000000000000e-01,9.993284940719604492e-01
-7.500000000000000000e-01,3.750000000000000000e-01,9.669845700263977051e-01
-7.500000000000000000e-01,1.250000000000000000e-01,9.776569008827209473e-01
-8.750000000000000000e-01,2.500000000000000000e-01,7.899757623672485352e-01
-6.250000000000000000e-01,2.500000000000000000e-01,9.995956420898437500e-01
-7.500000000000000000e-01,8.750000000000000000e-01,2.581882178783416748e-01
-7.500000000000000000e-01,6.250000000000000000e-01,7.716720700263977051e-01
-8.750000000000000000e-01,7.500000000000000000e-01,2.796244025230407715e-01
-6.250000000000000000e-01,7.500000000000000000e-01,6.804348230361938477e-01
-2.500000000000000000e-01,-6.250000000000000000e-01,9.927883148193359375e-01
-2.500000000000000000e-01,-8.750000000000000000e-01,5.503634214401245117e-01
-3.750000000000000000e-01,-7.500000000000000000e-01,8.605991601943969727e-01
-1.250000000000000000e-01,-7.500000000000000000e-01,8.361691236495971680e-01
-7.500000000000000000e-01,-6.250000000000000000e-01,5.043499469757080078e-01
-7.500000000000000000e-01,-8.750000000000000000e-01,2.210608869791030884e-01
-8.750000000000000000e-01,-7.500000000000000000e-01,2.180481553077697754e-01
-6.250000000000000000e-01,-7.500000000000000000e-01,5.313487052917480469e-01
-7.500000000000000000e-01,-1.250000000000000000e-01,9.483784437179565430e-01
-7.500000000000000000e-01,-3.750000000000000000e-01,8.489451408386230469e-01
-8.750000000000000000e-01,-2.500000000000000000e-01,5.869958996772766113e-01
-6.250000000000000000e-01,-2.500000000000000000e-01,9.935280680656433105e-01
7.500000000000000000e-01,-6.250000000000000000e-01,9.286890625953674316e-01
7.500000000000000000e-01,-8.750000000000000000e-01,6.162294745445251465e-01
6.250000000000000000e-01,-7.500000000000000000e-01,9.472768306732177734e-01
8.750000000000000000e-01,-7.500000000000000000e-01,5.843482017517089844e-01
2.500000000000000000e-01,-6.250000000000000000e-01,9.366028904914855957e-01
2.500000000000000000e-01,-8.750000000000000000e-01,4.360964894294738770e-01
1.250000000000000000e-01,-7.500000000000000000e-01,5.990024209022521973e-01
3.750000000000000000e-01,-7.500000000000000000e-01,8.812288045883178711e-01
2.500000000000000000e-01,-1.250000000000000000e-01,7.552219629287719727e-01
2.500000000000000000e-01,-3.750000000000000000e-01,9.975472092628479004e-01
1.250000000000000000e-01,-2.500000000000000000e-01,9.546348452568054199e-01
3.750000000000000000e-01,-2.500000000000000000e-01,9.235728979110717773e-01
7.500000000000000000e-01,-1.250000000000000000e-01,5.084037780761718750e-01
7.500000000000000000e-01,-3.750000000000000000e-01,8.042039871215820312e-01
6.250000000000000000e-01,-2.500000000000000000e-01,7.488040328025817871e-01
8.750000000000000000e-01,-2.500000000000000000e-01,3.473345637321472168e-01
-2.500000000000000000e-01,-1.250000000000000000e-01,5.342872142791748047e-01
-2.500000000000000000e-01,-3.750000000000000000e-01,9.557955861091613770e-01
-3.750000000000000000e-01,-2.500000000000000000e-01,9.322785139083862305e-01
-1.250000000000000000e-01,-2.500000000000000000e-01,9.159712195396423340e-01
-2.500000000000000000e-01,8.750000000000000000e-01,3.079908490180969238e-01
-2.500000000000000000e-01,6.250000000000000000e-01,7.904008030891418457e-01
-3.750000000000000000e-01,7.500000000000000000e-01,6.686983108520507812e-01
-1.250000000000000000e-01,7.500000000000000000e-01,7.889580130577087402e-01
7.500000000000000000e-01,8.750000000000000000e-01,8.306885361671447754e-01
7.500000000000000000e-01,6.250000000000000000e-01,9.953461885452270508e-01
6.250000000000000000e-01,7.500000000000000000e-01,9.920764565467834473e-01
8.750000000000000000e-01,7.500000000000000000e-01,8.382810354232788086e-01
8.750000000000000000e-01,6.250000000000000000e-01,9.362984895706176758e-01
6.250000000000000000e-01,6.250000000000000000e-01,9.999331831932067871e-01
6.250000000000000000e-01,8.750000000000000000e-01,9.167612195014953613e-01
-1.250000000000000000e-01,6.250000000000000000e-01,9.093630909919738770e-01
-3.750000000000000000e-01,6.250000000000000000e-01,9.354453086853027344e-01
-3.750000000000000000e-01,8.750000000000000000e-01,3.140684366226196289e-01
-1.250000000000000000e-01,-3.750000000000000000e-01,9.914166927337646484e-01
-3.750000000000000000e-01,-3.750000000000000000e-01,9.834199547767639160e-01
-3.750000000000000000e-01,-1.250000000000000000e-01,8.860352635383605957e-01
8.750000000000000000e-01,-3.750000000000000000e-01,5.331081151962280273e-01
6.250000000000000000e-01,-3.750000000000000000e-01,9.149367809295654297e-01
6.250000000000000000e-01,-1.250000000000000000e-01,5.991805791854858398e-01
3.750000000000000000e-01,-3.750000000000000000e-01,9.943479299545288086e-01
1.250000000000000000e-01,-3.750000000000000000e-01,9.979436993598937988e-01
1.250000000000000000e-01,-1.250000000000000000e-01,7.580483555793762207e-01
3.750000000000000000e-01,-8.750000000000000000e-01,6.588130593299865723e-01
1.250000000000000000e-01,-8.750000000000000000e-01,3.112238049507141113e-01
1.250000000000000000e-01,-6.250000000000000000e-01,8.936756849288940430e-01
8.750000000000000000e-01,-8.750000000000000000e-01,3.927975893020629883e-01
6.250000000000000000e-01,-8.750000000000000000e-01,7.624422907829284668e-01
6.250000000000000000e-01,-6.250000000000000000e-01,9.956170320510864258e-01
-6.250000000000000000e-01,-3.750000000000000000e-01,9.823007583618164062e-01
-8.750000000000000000e-01,-3.750000000000000000e-01,4.873261153697967529e-01
-8.750000000000000000e-01,-1.250000000000000000e-01,6.959515810012817383e-01
-6.250000000000000000e-01,-8.750000000000000000e-01,2.884064018726348877e-01
-8.750000000000000000e-01,-8.750000000000000000e-01,2.002892047166824341e-01
-8.750000000000000000e-01,-6.250000000000000000e-01,2.812553644180297852e-01
-1.250000000000000000e-01,-8.750000000000000000e-01,4.927296638488769531e-01
-3.750000000000000000e-01,-8.750000000000000000e-01,4.976022243499755859e-01
-3.750000000000000000e-01,-6.250000000000000000e-01,9.882116913795471191e-01
-6.250000000000000000e-01,6.250000000000000000e-01,9.378339052200317383e-01
-8.750000000000000000e-01,6.250000000000000000e-01,4.454331696033477783e-01
-8.750000000000000000e-01,8.750000000000000000e-01,2.087545096874237061e-01
-6.250000000000000000e-01,1.250000000000000000e-01,1.000000000000000000e+00
-8.750000000000000000e-01,1.250000000000000000e-01,7.908009290695190430e-01
-8.750000000000000000e-01,3.750000000000000000e-01,7.676644921302795410e-01
-1.250000000000000000e-01,1.250000000000000000e-01,9.468904733657836914e-01
-3.750000000000000000e-01,1.250000000000000000e-01,8.804510235786437988e-01
-3.750000000000000000e-01,3.750000000000000000e-01,9.999276399612426758e-01
3.750000000000000000e-01,6.250000000000000000e-01,9.888601303100585938e-01
1.250000000000000000e-01,6.250000000000000000e-01,9.997855424880981445e-01
1.250000000000000000e-01,8.750000000000000000e-01,9.022616147994995117e-01
3.750000000000000000e-01,1.250000000000000000e-01,8.684996366500854492e-01
1.250000000000000000e-01,1.250000000000000000e-01,7.337993383407592773e-01
1.250000000000000000e-01,3.750000000000000000e-01,9.631716012954711914e-01
8.750000000000000000e-01,1.250000000000000000e-01,7.717561125755310059e-01
6.250000000000000000e-01,1.250000000000000000e-01,9.906660914421081543e-01
6.250000000000000000e-01,3.750000000000000000e-01,9.990814328193664551e-01
8.750000000000000000e-01,3.750000000000000000e-01,9.425566196441650391e-01
3.750000000000000000e-01,3.750000000000000000e-01,8.341265916824340820e-01
3.750000000000000000e-01,8.750000000000000000e-01,9.737529158592224121e-01
-1.250000000000000000e-01,3.750000000000000000e-01,9.942089319229125977e-01
-6.250000000000000000e-01,3.750000000000000000e-01,9.996239542961120605e-01
-6.250000000000000000e-01,8.750000000000000000e-01,3.187011778354644775e-01
-1.250000000000000000e-01,-6.250000000000000000e-01,9.754807353019714355e-01
-6.250000000000000000e-01,-6.250000000000000000e-01,8.266069889068603516e-01
-6.250000000000000000e-01,-1.250000000000000000e-01,9.988413453102111816e-01
8.750000000000000000e-01,-6.250000000000000000e-01,6.996422410011291504e-01
3.750000000000000000e-01,-6.250000000000000000e-01,9.743323326110839844e-01
3.750000000000000000e-01,-1.250000000000000000e-01,6.783009767532348633e-01
8.750000000000000000e-01,-1.250000000000000000e-01,3.563936352729797363e-01
-1.250000000000000000e-01,-1.250000000000000000e-01,6.500884890556335449e-01
-1.250000000000000000e-01,8.750000000000000000e-01,5.094248056411743164e-01
8.750000000000000000e-01,8.750000000000000000e-01,6.127772331237792969e-01
-1.000000000000000000e+00,-9.375000000000000000e-01,1.982253491878509521e-01
9.375000000000000000e-01,-1.000000000000000000e+00,2.272036820650100708e-01
1.000000000000000000e+00,9.375000000000000000e-01,2.964675426483154297e-01
-9.375000000000000000e-01,1.000000000000000000e+00,1.997483968734741211e-01
-1.000000000000000000e+00,6.250000000000000000e-02,3.761638998985290527e-01
-6.250000000000000000e-02,-1.000000000000000000e+00,2.406046688556671143e-01
1.000000000000000000e+00,-6.250000000000000000e-02,2.848596870899200439e-01
6.250000000000000000e-02,1.000000000000000000e+00,5.527969598770141602e-01
0.000000000000000000e+00,9.375000000000000000e-01,6.098937988281250000e-01
0.000000000000000000e+00,-6.250000000000000000e-02,5.651828050613403320e-01
-9.375000000000000000e-01,0.000000000000000000e+00,5.535835027694702148e-01
6.250000000000000000e-02,0.000000000000000000e+00,5.621610879898071289e-01
-1.000000000000000000e+00,-4.375000000000000000e-01,2.336515486240386963e-01
4.375000000000000000e-01,-1.000000000000000000e+00,4.026495814323425293e-01
1.000000000000000000e+00,4.375000000000000000e-01,7.613662481307983398e-01
-4.375000000000000000e-01,1.000000000000000000e+00,2.064845860004425049e-01
-1.000000000000000000e+00,5.625000000000000000e-01,2.796045839786529541e-01
-5.625000000000000000e-01,-1.000000000000000000e+00,2.190227210521697998e-01
1.000000000000000000e+00,-5.625000000000000000e-01,3.700453042984008789e-01
5.625000000000000000e-01,1.000000000000000000e+00,7.465187907218933105e-01
0.000000000000000000e+00,4.375000000000000000e-01,9.996746778488159180e-01
0.000000000000000000e+00,-5.625000000000000000e-01,9.750589132308959961e-01
-4.375000000000000000e-01,0.000000000000000000e+00,9.180819988250732422e-01
5.625000000000000000e-01,0.000000000000000000e+00,8.903458118438720703e-01
5.000000000000000000e-01,-6.250000000000000000e-02,7.382234334945678711e-01
5.000000000000000000e-01,-5.625000000000000000e-01,9.992806315422058105e-01
6.250000000000000000e-02,-5.000000000000000000e-01,9.930932521820068359e-01
5.625000000000000000e-01,-5.000000000000000000e-01,9.967660903930664062e-01
-5.000000000000000000e-01,-6.250000000000000000e-02,9.872779846191406250e-01
-5.000000000000000000e-01,-5.625000000000000000e-01,9.847418665885925293e-01
-9.375000000000000000e-01,-5.000000000000000000e-01,2.760285735130310059e-01
-4.375000000000000000e-01,-5.000000000000000000e-01,9.997457265853881836e-01
-5.000000000000000000e-01,9.375000000000000000e-01,2.439730465412139893e-01
-5.000000000000000000e-01,4.375000000000000000e-01,9.974406361579895020e-01
-9.375000000000000000e-01,5.000000000000000000e-01,4.525711536407470703e-01
-4.375000000000000000e-01,5.000000000000000000e-01,9.998430609703063965e-01
5.000000000000000000e-01,9.375000000000000000e-01,8.875014781951904297e-01
5.000000000000000000e-01,4.375000000000000000e-01,9.402035474777221680e-01
6.250000000000000000e-02,5.000000000000000000e-01,9.985547661781311035e-01
5.625000000000000000e-01,5.000000000000000000e-01,9.770342707633972168e-01
-1.000000000000000000e+00,-6.875000000000000000e-01,1.994105577468872070e-01
6.875000000000000000e-01,-1.000000000000000000e+00,3.862926661968231201e-01
1.000000000000000000e+00,6.875000000000000000e-01,6.670029163360595703e-01
-6.875000000000000000e-01,1.000000000000000000e+00,2.031554430723190308e-01
-1.000000000000000000e+00,3.125000000000000000e-01,3.832254111766815186e-01
-3.125000000000000000e-01,-1.000000000000000000e+00,2.662917971611022949e-01
1.000000000000000000e+00,-3.125000000000000000e-01,2.662670314311981201e-01
3.125000000000000000e-01,1.000000000000000000e+00,7.934795022010803223e-01
0.000000000000000000e+00,6.875000000000000000e-01,9.723722934722900391e-01
0.000000000000000000e+00,-3.125000000000000000e-01,9.866917729377746582e-01
-6.875000000000000000e-01,0.000000000000000000e+00,9.966994524002075195e-01
3.125000000000000000e-01,0.000000000000000000e+00,5.642749071121215820e-01
-1.000000000000000000e+00,-1.875000000000000000e-01,3.035434484481811523e-01
1.875000000000000000e-01,-1.000000000000000000e+00,2.393377721309661865e-01
1.000000000000000000e+00,1.875000000000000000e-01,5.623022913932800293e-01
-1.875000000000000000e-01,1.000000000000000000e+00,2.546769976615905762e-01
-1.000000000000000000e+00,8.125000000000000000e-01,1.992625594139099121e-01
-8.125000000000000000e-01,-1.000000000000000000e+00,1.973029822111129761e-01
1.000000000000000000e+00,-8.125000000000000000e-01,2.832765877246856689e-01
8.125000000000000000e-01,1.000000000000000000e+00,4.442867040634155273e-01
0.000000000000000000e+00,1.875000000000000000e-01,9.652058482170104980e-01
0.000000000000000000e+00,-8.125000000000000000e-01,5.370925664901733398e-01
-1.875000000000000000e-01,0.000000000000000000e+00,7.507088184356689453e-01
8.125000000000000000e-01,0.000000000000000000e+00,7.242220640182495117e-01
5.000000000000000000e-01,-3.125000000000000000e-01,9.405655264854431152e-01
5.000000000000000000e-01,-8.125000000000000000e-01,8.892077803611755371e-01
3.125000000000000000e-01,-5.000000000000000000e-01,9.990002512931823730e-01
8.125000000000000000e-01,-5.000000000000000000e-01,8.278170824050903320e-01
-5.000000000000000000e-01,-3.125000000000000000e-01,9.983992576599121094e-01
-5.000000000000000000e-01,-8.125000000000000000e-01,5.840964317321777344e-01
-6.875000000000000000e-01,-5.000000000000000000e-01,8.734360337257385254e-01
-1.875000000000000000e-01,-5.000000000000000000e-01,9.991778135299682617e-01
-5.000000000000000000e-01,6.875000000000000000e-01,8.691666126251220703e-01
-5.000000000000000000e-01,1.875000000000000000e-01,9.642696976661682129e-01
-6.875000000000000000e-01,5.000000000000000000e-01,9.749857187271118164e-01
-1.875000000000000000e-01,5.000000000000000000e-01,9.193715453147888184e-01
5.000000000000000000e-01,6.875000000000000000e-01,9.999858140945434570e-01
5.000000000000000000e-01,1.875000000000000000e-01,9.908536076545715332e-01
3.125000000000000000e-01,5.000000000000000000e-01,8.953582048416137695e-01
8.125000000000000000e-01,5.000000000000000000e-01,9.843786954879760742e-01
7.500000000000000000e-01,4.375000000000000000e-01,9.992743134498596191e-01
7.500000000000000000e-01,1.875000000000000000e-01,9.677003026008605957e-01
5.625000000000000000e-01,2.500000000000000000e-01,9.996644258499145508e-01
8.125000000000000000e-01,2.500000000000000000e-01,9.564844369888305664e-01
2.500000000000000000e-01,4.375000000000000000e-01,8.768005967140197754e-01
2.500000000000000000e-01,1.875000000000000000e-01,6.134301424026489258e-01
6.250000000000000000e-02,2.500000000000000000e-01,9.520074725151062012e-01
3.125000000000000000e-01,2.500000000000000000e-01,7.917072176933288574e-01
2.500000000000000000e-01,9.375000000000000000e-01,8.741238713264465332e-01
2.500000000000000000e-01,6.875000000000000000e-01,9.999848604202270508e-01
6.250000000000000000e-02,7.500000000000000000e-01,9.740951657295227051e-01
3.125000000000000000e-01,7.500000000000000000e-01,9.978742003440856934e-01
-2.500000000000000000e-01,4.375000000000000000e-01,9.767936468124389648e-01
-2.500000000000000000e-01,1.875000000000000000e-01,9.924337863922119141e-01
-4.375000000000000000e-01,2.500000000000000000e-01,9.568449854850769043e-01
-1.875000000000000000e-01,2.500000000000000000e-01,9.997662305831909180e-01
-7.500000000000000000e-01,4.375000000000000000e-01,9.566187858581542969e-01
-7.500000000000000000e-01,1.875000000000000000e-01,9.776256084442138672e-01
-9.375000000000000000e-01,2.500000000000000000e-01,5.835087895393371582e-01
-6.875000000000000000e-01,2.500000000000000000e-01,9.972292184829711914e-01
-7.500000000000000000e-01,9.375000000000000000e-01,2.141800373792648315e-01
-7.500000000000000000e-01,6.875000000000000000e-01,6.402326226234436035e-01
-9.375000000000000000e-01,7.500000000000000000e-01,2.277010679244995117e-01
-6.875000000000000000e-01,7.500000000000000000e-01,5.934913754463195801e-01
-2.500000000000000000e-01,-5.625000000000000000e-01,9.998471140861511230e-01
-2.500000000000000000e-01,-8.125000000000000000e-01,7.510688900947570801e-01
-4.375000000000000000e-01,-7.500000000000000000e-01,8.294246792793273926e-01
-1.875000000000000000e-01,-7.500000000000000000e-01,8.771556019783020020e-01
-7.500000000000000000e-01,-5.625000000000000000e-01,6.382921934127807617e-01
-7.500000000000000000e-01,-8.125000000000000000e-01,2.613773345947265625e-01
-9.375000000000000000e-01,-7.500000000000000000e-01,2.021703869104385376e-01
-6.875000000000000000e-01,-7.500000000000000000e-01,4.186273813247680664e-01
-7.500000000000000000e-01,-6.250000000000000000e-02,9.536879062652587891e-01
-7.500000000000000000e-01,-3.125000000000000000e-01,8.838279843330383301e-01
-9.375000000000000000e-01,-2.500000000000000000e-01,3.939218521118164062e-01
-6.875000000000000000e-01,-2.500000000000000000e-01,9.679533839225769043e-01
7.500000000000000000e-01,-5.625000000000000000e-01,9.332724809646606445e-01
7.500000000000000000e-01,-8.125000000000000000e-01,7.562369108200073242e-01
5.625000000000000000e-01,-7.500000000000000000e-01,9.601024389266967773e-01
8.125000000000000000e-01,-7.500000000000000000e-01,7.409136295318603516e-01
2.500000000000000000e-01,-5.625000000000000000e-01,9.795687198638916016e-01
2.500000000000000000e-01,-8.125000000000000000e-01,5.543417930603027344e-01
6.250000000000000000e-02,-7.500000000000000000e-01,6.102800369262695312e-01
3.125000000000000000e-01,-7.500000000000000000e-01,7.945241928100585938e-01
2.500000000000000000e-01,-6.250000000000000000e-02,5.695766806602478027e-01
2.500000000000000000e-01,-3.125000000000000000e-01,9.868796467781066895e-01
6.250000000000000000e-02,-2.500000000000000000e-01,9.631956815719604492e-01
3.125000000000000000e-01,-2.500000000000000000e-01,9.334169626235961914e-01
7.500000000000000000e-01,-6.250000000000000000e-02,6.806601285934448242e-01
7.500000000000000000e-01,-3.125000000000000000e-01,6.847285032272338867e-01
5.625000000000000000e-01,-2.500000000000000000e-01,8.240702152252197266e-01
8.125000000000000000e-01,-2.500000000000000000e-01,4.329895377159118652e-01
-2.500000000000000000e-01,-6.250000000000000000e-02,5.424947738647460938e-01
-2.500000000000000000e-01,-3.125000000000000000e-01,8.990796804428100586e-01
-4.375000000000000000e-01,-2.500000000000000000e-01,9.833074212074279785e-01
-1.875000000000000000e-01,-2.500000000000000000e-01,8.681358098983764648e-01
-2.500000000000000000e-01,9.375000000000000000e-01,2.519730925559997559e-01
-2.500000000000000000e-01,6.875000000000000000e-01,6.563256382942199707e-01
-4.375000000000000000e-01,7.500000000000000000e-01,6.972326040267944336e-01
-1.875000000000000000e-01,7.500000000000000000e-01,6.466907262802124023e-01
7.500000000000000000e-01,9.375000000000000000e-01,6.962085962295532227e-01
7.500000000000000000e-01,6.875000000000000000e-01,9.773269891738891602e-01
5.625000000000000000e-01,7.500000000000000000e-01,9.972508549690246582e-01
8.125000000000000000e-01,7.500000000000000000e-01,9.003136157989501953e-01
-1.000000000000000000e+00,-8.125000000000000000e-01,1.997155398130416870e-01
8.125000000000000000e-01,-1.000000000000000000e+00,2.978699207305908203e-01
1.000000000000000000e+00,8.125000000000000000e-01,4.722223281860351562e-01
-8.125000000000000000e-01,1.000000000000000000e+00,2.000178396701812744e-01
-1.000000000000000000e+00,1.875000000000000000e-01,3.878095746040344238e-01
-1.875000000000000000e-01,-1.000000000000000000e+00,2.699273228645324707e-01
1.000000000000000000e+00,-1.875000000000000000e-01,2.179593741893768311e-01
1.875000000000000000e-01,1.000000000000000000e+00,7.129455804824829102e-01
0.000000000000000000e+00,8.125000000000000000e-01,8.774718642234802246e-01
0.000000000000000000e+00,-1.875000000000000000e-01,8.808542490005493164e-01
-8.125000000000000000e-01,0.000000000000000000e+00,9.019897580146789551e-01
1.875000000000000000e-01,0.000000000000000000e+00,4.077557921409606934e-01
-1.000000000000000000e+00,-3.125000000000000000e-01,2.596382200717926025e-01
3.125000000000000000e-01,-1.000000000000000000e+00,3.166449069976806641e-01
1.000000000000000000e+00,3.125000000000000000e-01,6.874020695686340332e-01
-3.125000000000000000e-01,1.000000000000000000e+00,2.044320553541183472e-01
-1.000000000000000000e+00,6.875000000000000000e-01,2.199133336544036865e-01
-6.875000000000000000e-01,-1.000000000000000000e+00,2.006677389144897461e-01
1.000000000000000000e+00,-6.875000000000000000e-01,3.474159836769104004e-01
6.875000000000000000e-01,1.000000000000000000e+00,6.021154522895812988e-01
0.000000000000000000e+00,3.125000000000000000e-01,9.962664842605590820e-01
0.000000000000000000e+00,-6.875000000000000000e-01,8.495181202888488770e-01
-3.125000000000000000e-01,0.000000000000000000e+00,7.020740509033203125e-01
6.875000000000000000e-01,0.000000000000000000e+00,8.695939779281616211e-01
5.000000000000000000e-01,-1.875000000000000000e-01,7.314314842224121094e-01
5.000000000000000000e-01,-6.875000000000000000e-01,9.880424737930297852e-01
1.875000000000000000e-01,-5.000000000000000000e-01,9.946939349174499512e-01
6.875000000000000000e-01,-5.000000000000000000e-01,9.680534005165100098e-01
-5.000000000000000000e-01,-1.875000000000000000e-01,9.961096048355102539e-01
-5.000000000000000000e-01,-6.875000000000000000e-01,8.689355850219726562e-01
-8.125000000000000000e-01,-5.000000000000000000e-01,5.547486543655395508e-01
-3.125000000000000000e-01,-5.000000000000000000e-01,9.994524121284484863e-01
-5.000000000000000000e-01,8.125000000000000000e-01,4.907752871513366699e-01
-5.000000000000000000e-01,3.125000000000000000e-01,9.674596190452575684e-01
-8.125000000000000000e-01,5.000000000000000000e-01,8.344262838363647461e-01
-3.125000000000000000e-01,5.000000000000000000e-01,9.803794026374816895e-01
5.000000000000000000e-01,8.125000000000000000e-01,9.911798834800720215e-01
5.000000000000000000e-01,3.125000000000000000e-01,9.832464456558227539e-01
1.875000000000000000e-01,5.000000000000000000e-01,9.731876254081726074e-01
6.875000000000000000e-01,5.000000000000000000e-01,9.989629983901977539e-01
-1.000000000000000000e+00,-5.625000000000000000e-01,2.116979956626892090e-01
5.625000000000000000e-01,-1.000000000000000000e+00,4.359236955642700195e-01
1.000000000000000000e+00,5.625000000000000000e-01,7.391195297241210938e-01
-5.625000000000000000e-01,1.000000000000000000e+00,2.074130922555923462e-01
-1.000000000000000000e+00,4.375000000000000000e-01,3.370419740676879883e-01
-4.375000000000000000e-01,-1.000000000000000000e+00,2.459813356399536133e-01
1.000000000000000000e+00,-4.375000000000000000e-01,3.321239352226257324e-01
4.375000000000000000e-01,1.000000000000000000e+00,7.961458563804626465e-01
0.000000000000000000e+00,5.625000000000000000e-01,9.974038600921630859e-01
0.000000000000000000e+00,-4.375000000000000000e-01,9.994172453880310059e-01
-5.625000000000000000e-01,0.000000000000000000e+00,9.976314902305603027e-01
4.375000000000000000e-01,0.000000000000000000e+00,8.049395680427551270e-01
-1.000000000000000000e+00,-6.250000000000000000e-02,3.494683504104614258e-01
6.250000000000000000e-02,-1.000000000000000000e+00,2.141312062740325928e-01
1.000000000000000000e+00,6.250000000000000000e-02,3.916240930557250977e-01
-6.250000000000000000e-02,1.000000000000000000e+00,3.670691847801208496e-01
-1.000000000000000000e+00,9.375000000000000000e-01,2.000000029802322388e-01
-9.375000000000000000e-01,-1.000000000000000000e+00,1.961778551340103149e-01
1.000000000000000000e+00,-9.375000000000000000e-01,2.248162925243377686e-01
9.375000000000000000e-01,1.000000000000000000e+00,2.984368205070495605e-01
0.000000000000000000e+00,6.250000000000000000e-02,8.169707655906677246e-01
0.000000000000000000e+00,-9.375000000000000000e-01,2.789293527603149414e-01
-6.250000000000000000e-02,0.000000000000000000e+00,7.002758383750915527e-01
9.375000000000000000e-01,0.000000000000000000e+00,4.444119036197662354e-01
5.000000000000000000e-01,-4.375000000000000000e-01,9.964606165885925293e-01
5.000000000000000000e-01,-9.375000000000000000e-01,6.035197973251342773e-01
4.375000000000000000e-01,-5.000000000000000000e-01,1.000000000000000000e+00
9.375000000000000000e-01,-5.000000000000000000e-01,4.997048377990722656e-01
-5.000000000000000000e-01,-4.375000000000000000e-01,9.981507062911987305e-01
-5.000000000000000000e-01,-9.375000000000000000e-01,2.973189353942871094e-01
-5.625000000000000000e-01,-5.000000000000000000e-01,9.786421060562133789e-01
-6.250000000000000000e-02,-5.000000000000000000e-01,9.975733757019042969e-01
-5.000000000000000000e-01,5.625000000000000000e-01,9.909588694572448730e-01
-5.000000000000000000e-01,6.250000000000000000e-02,9.708089828491210938e-01
-5.625000000000000000e-01,5.000000000000000000e-01,9.999055266380310059e-01
-6.250000000000000000e-02,5.000000000000000000e-01,9.957950711250305176e-01
5.000000000000000000e-01,5.625000000000000000e-01,9.765998721122741699e-01
5.000000000000000000e-01,6.250000000000000000e-02,9.367237091064453125e-01
4.375000000000000000e-01,5.000000000000000000e-01,9.018078446388244629e-01
9.375000000000000000e-01,5.000000000000000000e-01,8.738735318183898926e-01
7.500000000000000000e-01,3.125000000000000000e-01,9.947210550308227539e-01
7.500000000000000000e-01,6.250000000000000000e-02,9.005196094512939453e-01
6.875000000000000000e-01,2.500000000000000000e-01,9.956226944923400879e-01
9.375000000000000000e-01,2.500000000000000000e-01,7.894318103790283203e-01
2.500000000000000000e-01,3.125000000000000000e-01,7.261171340942382812e-01
2.500000000000000000e-01,6.250000000000000000e-02,5.052536129951477051e-01
1.875000000000000000e-01,2.500000000000000000e-01,7.986277341842651367e-01
4.375000000000000000e-01,2.500000000000000000e-01,9.639187455177307129e-01
2.500000000000000000e-01,8.125000000000000000e-01,9.898125529289245605e-01
2.500000000000000000e-01,5.625000000000000000e-01,9.784200787544250488e-01
1.875000000000000000e-01,7.500000000000000000e-01,9.960581064224243164e-01
4.375000000000000000e-01,7.500000000000000000e-01,9.983705878257751465e-01
-2.500000000000000000e-01,3.125000000000000000e-01,9.986619353294372559e-01
-2.500000000000000000e-01,6.250000000000000000e-02,8.855327367782592773e-01
-3.125000000000000000e-01,2.500000000000000000e-01,9.958431124687194824e-01
-6.250000000000000000e-02,2.500000000000000000e-01,9.984775185585021973e-01
-7.500000000000000000e-01,3.125000000000000000e-01,9.782223105430603027e-01
-7.500000000000000000e-01,6.250000000000000000e-02,9.700278043746948242e-01
-8.125000000000000000e-01,2.500000000000000000e-01,9.140029549598693848e-01
-5.625000000000000000e-01,2.500000000000000000e-01,9.940112233161926270e-01
-7.500000000000000000e-01,8.125000000000000000e-01,3.407215178012847900e-01
-7.500000000000000000e-01,5.625000000000000000e-01,8.641457557678222656e-01
-8.125000000000000000e-01,7.500000000000000000e-01,3.616878986358642578e-01
-5.625000000000000000e-01,7.500000000000000000e-01,7.190837860107421875e-01
-2.500000000000000000e-01,-6.875000000000000000e-01,9.599428176879882812e-01
-2.500000000000000000e-01,-9.375000000000000000e-01,3.755773901939392090e-01
-3.125000000000000000e-01,-7.500000000000000000e-01,8.655265569686889648e-01
-6.250000000000000000e-02,-7.500000000000000000e-01,7.848803400993347168e-01
-7.500000000000000000e-01,-6.875000000000000000e-01,4.089329242706298828e-01
-7.500000000000000000e-01,-9.375000000000000000e-01,2.031883150339126587e-01
-8.125000000000000000e-01,-7.500000000000000000e-01,2.582041919231414795e-01
-5.625000000000000000e-01,-7.500000000000000000e-01,6.343951225280761719e-01
-7.500000000000000000e-01,-1.875000000000000000e-01,9.243004918098449707e-01
-7.500000000000000000e-01,-4.375000000000000000e-01,8.052095770835876465e-01
-8.125000000000000000e-01,-2.500000000000000000e-01,7.849243879318237305e-01
-5.625000000000000000e-01,-2.500000000000000000e-01,9.997354745864868164e-01
7.500000000000000000e-01,-6.875000000000000000e-01,9.031366109848022461e-01
7.500000000000000000e-01,-9.375000000000000000e-01,4.617465734481811523e-01
6.875000000000000000e-01,-7.500000000000000000e-01,9.134607911109924316e-01
9.375000000000000000e-01,-7.500000000000000000e-01,4.277560114860534668e-01
2.500000000000000000e-01,-6.875000000000000000e-01,8.551180362701416016e-01
2.500000000000000000e-01,-9.375000000000000000e-01,3.419299721717834473e-01
1.875000000000000000e-01,-7.500000000000000000e-01,6.610895991325378418e-01
4.375000000000000000e-01,-7.500000000000000000e-01,9.307702779769897461e-01
2.500000000000000000e-01,-1.875000000000000000e-01,8.809491395950317383e-01
2.500000000000000000e-01,-4.375000000000000000e-01,9.982292056083679199e-01
1.875000000000000000e-01,-2.500000000000000000e-01,9.610281586647033691e-01
4.375000000000000000e-01,-2.500000000000000000e-01,8.895573019981384277e-01
7.500000000000000000e-01,-1.875000000000000000e-01,3.911029398441314697e-01
7.500000000000000000e-01,-4.375000000000000000e-01,8.778025507926940918e-01
6.875000000000000000e-01,-2.500000000000000000e-01,6.307052373886108398e-01
9.375000000000000000e-01,-2.500000000000000000e-01,2.819303870201110840e-01
-2.500000000000000000e-01,-1.875000000000000000e-01,6.456047892570495605e-01
-2.500000000000000000e-01,-4.375000000000000000e-01,9.914042353630065918e-01
-3.125000000000000000e-01,-2.500000000000000000e-01,8.307871818542480469e-01
-6.250000000000000000e-02,-2.500000000000000000e-01,9.345373511314392090e-01
-2.500000000000000000e-01,8.125000000000000000e-01,3.845364451408386230e-01
-2.500000000000000000e-01,5.625000000000000000e-01,8.876673579216003418e-01
-3.125000000000000000e-01,7.500000000000000000e-01,5.933719873428344727e-01
-6.250000000000000000e-02,7.500000000000000000e-01,8.745468854904174805e-01
7.500000000000000000e-01,8.125000000000000000e-01,9.112424850463867188e-01
7.500000000000000000e-01,5.625000000000000000e-01,9.988431930541992188e-01
6.875000000000000000e-01,7.500000000000000000e-01,9.834692478179931641e-01
9.375000000000000000e-01,7.500000000000000000e-01,7.319060564041137695e-01
8.750000000000000000e-01,6.875000000000000000e-01,9.029313325881958008e-01
8.750000000000000000e-01,5.625000000000000000e-01,9.468408226966857910e-01
8.125000000000000000e-01,6.250000000000000000e-01,9.789997339248657227e-01
9.375000000000000000e-01,6.250000000000000000e-01,8.563328981399536133e-01
6.250000000000000000e-01,6.875000000000000000e-01,9.996649026870727539e-01
6.250000000000000000e-01,5.625000000000000000e-01,9.982356429100036621e-01
5.625000000000000000e-01,6.250000000000000000e-01,9.990932345390319824e-01
6.875000000000000000e-01,6.250000000000000000e-01,9.982714056968688965e-01
6.250000000000000000e-01,9.375000000000000000e-01,8.335288763046264648e-01
6.250000000000000000e-01,8.125000000000000000e-01,9.616784453392028809e-01
5.625000000000000000e-01,8.750000000000000000e-01,9.484024643898010254e-01
6.875000000000000000e-01,8.750000000000000000e-01,8.778215646743774414e-01
-1.250000000000000000e-01,6.875000000000000000e-01,8.693974018096923828e-01
-1.250000000000000000e-01,5.625000000000000000e-01,9.523685574531555176e-01
-1.875000000000000000e-01,6.250000000000000000e-01,8.230586647987365723e-01
-6.250000000000000000e-02,6.250000000000000000e-01,9.691074490547180176e-01
-3.750000000000000000e-01,6.875000000000000000e-01,8.402625322341918945e-01
-3.750000000000000000e-01,5.625000000000000000e-01,9.813519120216369629e-01
-4.375000000000000000e-01,6.250000000000000000e-01,9.513671398162841797e-01
-3.125000000000000000e-01,6.250000000000000000e-01,8.873016834259033203e-01
-3.750000000000000000e-01,9.375000000000000000e-01,2.373682558536529541e-01
-3.750000000000000000e-01,8.125000000000000000e-01,4.579769670963287354e-01
-4.375000000000000000e-01,8.750000000000000000e-01,3.241694271564483643e-01
-3.125000000000000000e-01,8.750000000000000000e-01,2.904277741909027100e-01
-1.250000000000000000e-01,-3.125000000000000000e-01,9.693325161933898926e-01
-1.250000000000000000e-01,-4.375000000000000000e-01,9.987537860870361328e-01
-1.875000000000000000e-01,-3.750000000000000000e-01,9.799638986587524414e-01
-6.250000000000000000e-02,-3.750000000000000000e-01,9.983285665512084961e-01
-3.750000000000000000e-01,-3.125000000000000000e-01,9.574202299118041992e-01
-3.750000000000000000e-01,-4.375000000000000000e-01,9.960717558860778809e-01
-4.375000000000000000e-01,-3.750000000000000000e-01,9.962722659111022949e-01
-3.125000000000000000e-01,-3.750000000000000000e-01,9.590808153152465820e-01
-3.750000000000000000e-01,-6.250000000000000000e-02,8.411502838134765625e-01
-3.750000000000000000e-01,-1.875000000000000000e-01,9.047050476074218750e-01
-4.375000000000000000e-01,-1.250000000000000000e-01,9.603685140609741211e-01
-3.125000000000000000e-01,-1.250000000000000000e-01,7.451319098472595215e-01
8.750000000000000000e-01,-3.125000000000000000e-01,4.344272911548614502e-01
8.750000000000000000e-01,-4.375000000000000000e-01,6.215622425079345703e-01
8.125000000000000000e-01,-3.750000000000000000e-01,6.868294477462768555e-01
9.375000000000000000e-01,-3.750000000000000000e-01,3.946732282638549805e-01
6.250000000000000000e-01,-3.125000000000000000e-01,8.507137298583984375e-01
6.250000000000000000e-01,-4.375000000000000000e-01,9.670396447181701660e-01
5.625000000000000000e-01,-3.750000000000000000e-01,9.587436318397521973e-01
6.875000000000000000e-01,-3.750000000000000000e-01,8.762814998626708984e-01
6.250000000000000000e-01,-6.250000000000000000e-02,7.760491967201232910e-01
6.250000000000000000e-01,-1.875000000000000000e-01,5.976923704147338867e-01
5.625000000000000000e-01,-1.250000000000000000e-01,5.964142084121704102e-01
6.875000000000000000e-01,-1.250000000000000000e-01,5.683941245079040527e-01
3.750000000000000000e-01,-3.125000000000000000e-01,9.738069772720336914e-01
3.750000000000000000e-01,-4.375000000000000000e-01,9.986516833305358887e-01
3.125000000000000000e-01,-3.750000000000000000e-01,9.978007674217224121e-01
4.375000000000000000e-01,-3.750000000000000000e-01,9.872140884399414062e-01
1.250000000000000000e-01,-3.125000000000000000e-01,9.883290529251098633e-01
1.250000000000000000e-01,-4.375000000000000000e-01,9.978924989700317383e-01
6.250000000000000000e-02,-3.750000000000000000e-01,9.998722672462463379e-01
1.875000000000000000e-01,-3.750000000000000000e-01,9.997720718383789062e-01
1.250000000000000000e-01,-6.250000000000000000e-02,5.697560310363769531e-01
1.250000000000000000e-01,-1.875000000000000000e-01,8.841986656188964844e-01
6.250000000000000000e-02,-1.250000000000000000e-01,7.736309766769409180e-01
1.875000000000000000e-01,-1.250000000000000000e-01,7.715422511100769043e-01
3.750000000000000000e-01,-8.125000000000000000e-01,7.951177954673767090e-01
3.750000000000000000e-01,-9.375000000000000000e-01,4.947191774845123291e-01
3.125000000000000000e-01,-8.750000000000000000e-01,5.511029958724975586e-01
4.375000000000000000e-01,-8.750000000000000000e-01,7.348554134368896484e-01
1.250000000000000000e-01,-8.125000000000000000e-01,4.195845127105712891e-01
1.250000000000000000e-01,-9.375000000000000000e-01,2.458458095788955688e-01
6.250000000000000000e-02,-8.750000000000000000e-01,3.287715911865234375e-01
1.875000000000000000e-01,-8.750000000000000000e-01,3.460539579391479492e-01
1.250000000000000000e-01,-5.625000000000000000e-01,9.585708379745483398e-01
1.250000000000000000e-01,-6.875000000000000000e-01,7.779242992401123047e-01
6.250000000000000000e-02,-6.250000000000000000e-01,8.941949605941772461e-01
1.875000000000000000e-01,-6.250000000000000000e-01,9.067474007606506348e-01
8.750000000000000000e-01,-8.125000000000000000e-01,4.880995154380798340e-01
8.750000000000000000e-01,-9.375000000000000000e-01,3.148388266563415527e-01
8.125000000000000000e-01,-8.750000000000000000e-01,5.014701485633850098e-01
9.375000000000000000e-01,-8.750000000000000000e-01,3.092700839042663574e-01
6.250000000000000000e-01,-8.125000000000000000e-01,8.794301748275756836e-01
6.250000000000000000e-01,-9.375000000000000000e-01,5.897285342216491699e-01
5.625000000000000000e-01,-8.750000000000000000e-01,7.842211127281188965e-01
6.875000000000000000e-01,-8.750000000000000000e-01,7.071176767349243164e-01
6.250000000000000000e-01,-5.625000000000000000e-01,9.971686601638793945e-01
6.250000000000000000e-01,-6.875000000000000000e-01,9.829650521278381348e-01
5.625000000000000000e-01,-6.250000000000000000e-01,9.994935989379882812e-01
6.875000000000000000e-01,-6.250000000000000000e-01,9.763601422309875488e-01
-6.250000000000000000e-01,-3.125000000000000000e-01,9.932015538215637207e-01
-6.250000000000000000e-01,-4.375000000000000000e-01,9.741984605789184570e-01
-6.875000000000000000e-01,-3.750000000000000000e-01,9.350214600563049316e-01
-5.625000000000000000e-01,-3.750000000000000000e-01,9.987558126449584961e-01
-8.750000000000000000e-01,-3.125000000000000000e-01,5.259946584701538086e-01
-8.750000000000000000e-01,-4.375000000000000000e-01,4.212810099124908447e-01
-9.375000000000000000e-01,-3.750000000000000000e-01,3.340010643005371094e-01
-8.125000000000000000e-01,-3.750000000000000000e-01,6.931242942810058594e-01
-8.750000000000000000e-01,-6.250000000000000000e-02,7.315931320190429688e-01
-8.750000000000000000e-01,-1.875000000000000000e-01,6.388928294181823730e-01
-9.375000000000000000e-01,-1.250000000000000000e-01,4.795523285865783691e-01
-8.125000000000000000e-01,-1.250000000000000000e-01,8.599138855934143066e-01
-6.250000000000000000e-01,-8.125000000000000000e-01,3.774681091308593750e-01
-6.250000000000000000e-01,-9.375000000000000000e-01,2.346776425838470459e-01
-6.875000000000000000e-01,-8.750000000000000000e-01,2.473142743110656738e-01
-5.625000000000000000e-01,-8.750000000000000000e-01,3.470212817192077637e-01
-8.750000000000000000e-01,-8.125000000000000000e-01,2.050703465938568115e-01
-8.750000000000000000e-01,-9.375000000000000000e-01,1.989356279373168945e-01
-9.375000000000000000e-01,-8.750000000000000000e-01,1.999227553606033325e-01
-8.125000000000000000e-01,-8.750000000000000000e-01,2.054746598005294800e-01
-8.750000000000000000e-01,-5.625000000000000000e-01,3.312170207500457764e-01
-8.750000000000000000e-01,-6.875000000000000000e-01,2.402774393558502197e-01
-9.375000000000000000e-01,-6.250000000000000000e-01,2.278761565685272217e-01
-8.125000000000000000e-01,-6.250000000000000000e-01,3.688735961914062500e-01
-1.250000000000000000e-01,-8.125000000000000000e-01,6.860014200210571289e-01
-1.250000000000000000e-01,-9.375000000000000000e-01,3.444619774818420410e-01
-1.875000000000000000e-01,-8.750000000000000000e-01,5.388734340667724609e-01
-6.250000000000000000e-02,-8.750000000000000000e-01,4.239084720611572266e-01
-3.750000000000000000e-01,-8.125000000000000000e-01,7.051509022712707520e-01
-3.750000000000000000e-01,-9.375000000000000000e-01,3.407009243965148926e-01
-4.375000000000000000e-01,-8.750000000000000000e-01,4.666478633880615234e-01
-3.125000000000000000e-01,-8.750000000000000000e-01,5.247145891189575195e-01
-3.750000000000000000e-01,-5.625000000000000000e-01,9.992332458496093750e-01
-3.750000000000000000e-01,-6.875000000000000000e-01,9.467196464538574219e-01
-4.375000000000000000e-01,-6.250000000000000000e-01,9.726082682609558105e-01
-3.125000000000000000e-01,-6.250000000000000000e-01,9.871715307235717773e-01
-6.250000000000000000e-01,6.875000000000000000e-01,8.469384908676147461e-01
-6.250000000000000000e-01,5.625000000000000000e-01,9.806513190269470215e-01
-6.875000000000000000e-01,6.250000000000000000e-01,8.822160363197326660e-01
-5.625000000000000000e-01,6.250000000000000000e-01,9.589574337005615234e-01
-8.750000000000000000e-01,6.875000000000000000e-01,3.397587537765502930e-01
-8.750000000000000000e-01,5.625000000000000000e-01,5.658501982688903809e-01
-9.375000000000000000e-01,6.250000000000000000e-01,3.237896263599395752e-01
-8.125000000000000000e-01,6.250000000000000000e-01,6.030658483505249023e-01
-8.750000000000000000e-01,9.375000000000000000e-01,2.005384564399719238e-01
-8.750000000000000000e-01,8.125000000000000000e-01,2.345594912767410278e-01
-9.375000000000000000e-01,8.750000000000000000e-01,2.007387876510620117e-01
-8.125000000000000000e-01,8.750000000000000000e-01,2.283272147178649902e-01
-6.250000000000000000e-01,1.875000000000000000e-01,9.998556375503540039e-01
-6.250000000000000000e-01,6.250000000000000000e-02,9.991726875305175781e-01
-6.875000000000000000e-01,1.250000000000000000e-01,9.981558918952941895e-01
-5.625000000000000000e-01,1.250000000000000000e-01,9.964181184768676758e-01
-8.750000000000000000e-01,1.875000000000000000e-01,7.931536436080932617e-01
-8.750000000000000000e-01,6.250000000000000000e-02,7.752389311790466309e-01
-9.375000000000000000e-01,1.250000000000000000e-01,5.836238265037536621e-01
-8.125000000000000000e-01,1.250000000000000000e-01,9.153015017509460449e-01
-8.750000000000000000e-01,4.375000000000000000e-01,7.109372615814208984e-01
-8.750000000000000000e-01,3.125000000000000000e-01,7.902585268020629883e-01
-9.375000000000000000e-01,3.750000000000000000e-01,5.574969053268432617e-01
-8.125000000000000000e-01,3.750000000000000000e-01,8.997483849525451660e-01
-1.250000000000000000e-01,1.875000000000000000e-01,9.883250594139099121e-01
-1.250000000000000000e-01,6.250000000000000000e-02,8.611731529235839844e-01
-1.875000000000000000e-01,1.250000000000000000e-01,9.616149663925170898e-01
-6.250000000000000000e-02,1.250000000000000000e-01,9.431387782096862793e-01
-3.750000000000000000e-01,1.875000000000000000e-01,9.548082947731018066e-01
-3.750000000000000000e-01,6.250000000000000000e-02,7.752674818038940430e-01
-4.375000000000000000e-01,1.250000000000000000e-01,8.966054916381835938e-01
-3.125000000000000000e-01,1.250000000000000000e-01,9.343098998069763184e-01
-3.750000000000000000e-01,4.375000000000000000e-01,9.996143579483032227e-01
-3.750000000000000000e-01,3.125000000000000000e-01,9.966546893119812012e-01
-4.375000000000000000e-01,3.750000000000000000e-01,9.969763159751892090e-01
-3.125000000000000000e-01,3.750000000000000000e-01,9.989428520202636719e-01
3.750000000000000000e-01,6.875000000000000000e-01,9.993956089019775391e-01
3.750000000000000000e-01,5.625000000000000000e-01,9.506151676177978516e-01
3.125000000000000000e-01,6.250000000000000000e-01,9.908554553985595703e-01
4.375000000000000000e-01,6.250000000000000000e-01,9.905721545219421387e-01
1.250000000000000000e-01,6.875000000000000000e-01,9.992129206657409668e-01
1.250000000000000000e-01,5.625000000000000000e-01,9.986308813095092773e-01
6.250000000000000000e-02,6.250000000000000000e-01,9.985456466674804688e-01
1.875000000000000000e-01,6.250000000000000000e-01,9.995545744895935059e-01
1.250000000000000000e-01,9.375000000000000000e-01,8.075281977653503418e-01
1.250000000000000000e-01,8.125000000000000000e-01,9.530063867568969727e-01
6.250000000000000000e-02,8.750000000000000000e-01,8.402301073074340820e-01
1.875000000000000000e-01,8.750000000000000000e-01,9.399120211601257324e-01
3.750000000000000000e-01,1.875000000000000000e-01,8.974750638008117676e-01
3.750000000000000000e-01,6.250000000000000000e-02,8.079630136489868164e-01
3.125000000000000000e-01,1.250000000000000000e-01,7.481175065040588379e-01
4.375000000000000000e-01,1.250000000000000000e-01,9.385610222816467285e-01
1.250000000000000000e-01,1.875000000000000000e-01,8.196385502815246582e-01
1.250000000000000000e-01,6.250000000000000000e-02,6.021202206611633301e-01
6.250000000000000000e-02,1.250000000000000000e-01,8.502951860427856445e-01
1.875000000000000000e-01,1.250000000000000000e-01,5.611976981163024902e-01
1.250000000000000000e-01,4.375000000000000000e-01,9.828544855117797852e-01
1.250000000000000000e-01,3.125000000000000000e-01,9.383807182312011719e-01
6.250000000000000000e-02,3.750000000000000000e-01,9.898332953453063965e-01
1.875000000000000000e-01,3.750000000000000000e-01,9.082357287406921387e-01
8.750000000000000000e-01,1.875000000000000000e-01,8.501330614089965820e-01
8.750000000000000000e-01,6.250000000000000000e-02,6.988685131072998047e-01
8.125000000000000000e-01,1.250000000000000000e-01,8.828570842742919922e-01
9.375000000000000000e-01,1.250000000000000000e-01,6.339151263236999512e-01
6.250000000000000000e-01,1.875000000000000000e-01,9.993442296981811523e-01
6.250000000000000000e-01,6.250000000000000000e-02,9.587057828903198242e-01
5.625000000000000000e-01,1.250000000000000000e-01,9.897871613502502441e-01
6.875000000000000000e-01,1.250000000000000000e-01,9.791489839553833008e-01
6.250000000000000000e-01,4.375000000000000000e-01,9.974783658981323242e-01
6.250000000000000000e-01,3.125000000000000000e-01,9.996945261955261230e-01
5.625000000000000000e-01,3.750000000000000000e-01,9.912593960762023926e-01
6.875000000000000000e-01,3.750000000000000000e-01,9.993352293968200684e-01
8.750000000000000000e-01,4.375000000000000000e-01,9.540932178497314453e-01
8.750000000000000000e-01,3.125000000000000000e-01,9.142651557922363281e-01
8.125000000000000000e-01,3.750000000000000000e-01,9.816771149635314941e-01
9.375000000000000000e-01,3.750000000000000000e-01,8.687195777893066406e-01
3.750000000000000000e-01,4.375000000000000000e-01,7.540968656539916992e-01
3.750000000000000000e-01,3.125000000000000000e-01,8.822596073150634766e-01
3.125000000000000000e-01,3.750000000000000000e-01,7.047899365425109863e-01
4.375000000000000000e-01,3.750000000000000000e-01,9.115169644355773926e-01
3.750000000000000000e-01,9.375000000000000000e-01,9.167017340660095215e-01
3.750000000000000000e-01,8.125000000000000000e-01,9.963490366935729980e-01
3.125000000000000000e-01,8.750000000000000000e-01,9.640842080116271973e-01
4.375000000000000000e-01,8.750000000000000000e-01,9.656257033348083496e-01
-1.250000000000000000e-01,4.375000000000000000e-01,9.886256456375122070e-01
-1.250000000000000000e-01,3.125000000000000000e-01,9.998558163642883301e-01
-1.875000000000000000e-01,3.750000000000000000e-01,9.869751930236816406e-01
-6.250000000000000000e-02,3.750000000000000000e-01,9.999583363533020020e-01
-6.250000000000000000e-01,4.375000000000000000e-01,9.996615052223205566e-01
-6.250000000000000000e-01,3.125000000000000000e-01,1.000000000000000000e+00
-6.875000000000000000e-01,3.750000000000000000e-01,9.930394291877746582e-01
-5.625000000000000000e-01,3.750000000000000000e-01,9.982627630233764648e-01
-6.250000000000000000e-01,9.375000000000000000e-01,2.390809357166290283e-01
-6.250000000000000000e-01,8.125000000000000000e-01,4.679358005523681641e-01
-6.875000000000000000e-01,8.750000000000000000e-01,2.910246849060058594e-01
-5.625000000000000000e-01,8.750000000000000000e-01,3.335719108581542969e-01
-1.250000000000000000e-01,-5.625000000000000000e-01,9.969516396522521973e-01
-1.250000000000000000e-01,-6.875000000000000000e-01,9.225009083747863770e-01
-1.875000000000000000e-01,-6.250000000000000000e-01,9.890210628509521484e-01
-6.250000000000000000e-02,-6.250000000000000000e-01,9.618471264839172363e-01
-6.250000000000000000e-01,-5.625000000000000000e-01,8.939143419265747070e-01
-6.250000000000000000e-01,-6.875000000000000000e-01,7.041943073272705078e-01
-6.875000000000000000e-01,-6.250000000000000000e-01,6.886898279190063477e-01
-5.625000000000000000e-01,-6.250000000000000000e-01,9.044377803802490234e-01
-6.250000000000000000e-01,-6.250000000000000000e-02,9.998006224632263184e-01
-6.250000000000000000e-01,-1.875000000000000000e-01,9.985882639884948730e-01
-6.875000000000000000e-01,-1.250000000000000000e-01,9.889314770698547363e-01
-5.625000000000000000e-01,-1.250000000000000000e-01,9.984825253486633301e-01
8.750000000000000000e-01,-5.625000000000000000e-01,7.071358561515808105e-01
8.750000000000000000e-01,-6.875000000000000000e-01,6.584389209747314453e-01
8.125000000000000000e-01,-6.250000000000000000e-01,8.427120447158813477e-01
9.375000000000000000e-01,-6.250000000000000000e-01,5.151168704032897949e-01
3.750000000000000000e-01,-5.625000000000000000e-01,9.939928650856018066e-01
3.750000000000000000e-01,-6.875000000000000000e-01,9.295192956924438477e-01
3.125000000000000000e-01,-6.250000000000000000e-01,9.471983313560485840e-01
4.375000000000000000e-01,-6.250000000000000000e-01,9.873363971710205078e-01
3.750000000000000000e-01,-6.250000000000000000e-02,5.610444545745849609e-01
3.750000000000000000e-01,-1.875000000000000000e-01,8.315373659133911133e-01
3.125000000000000000e-01,-1.250000000000000000e-01,7.023638486862182617e-01
4.375000000000000000e-01,-1.250000000000000000e-01,6.257133483886718750e-01
8.750000000000000000e-01,-6.250000000000000000e-02,4.627355933189392090e-01
8.750000000000000000e-01,-1.875000000000000000e-01,2.813676297664642334e-01
8.125000000000000000e-01,-1.250000000000000000e-01,4.320403337478637695e-01
9.375000000000000000e-01,-1.250000000000000000e-01,2.930928766727447510e-01
-1.250000000000000000e-01,-6.250000000000000000e-02,5.103768706321716309e-01
-1.250000000000000000e-01,-1.875000000000000000e-01,8.164528012275695801e-01
-1.875000000000000000e-01,-1.250000000000000000e-01,5.808316469192504883e-01
-6.250000000000000000e-02,-1.250000000000000000e-01,6.953346133232116699e-01
-1.250000000000000000e-01,9.375000000000000000e-01,3.931185603141784668e-01
-1.250000000000000000e-01,8.125000000000000000e-01,6.537748575210571289e-01
-1.875000000000000000e-01,8.750000000000000000e-01,3.884958922863006592e-01
-6.250000000000000000e-02,8.750000000000000000e-01,6.592224240303039551e-01
8.750000000000000000e-01,9.375000000000000000e-01,4.806659817695617676e-01
8.750000000000000000e-01,8.125000000000000000e-01,7.280530929565429688e-01
8.125000000000000000e-01,8.750000000000000000e-01,7.446101307868957520e-01
9.375000000000000000e-01,8.750000000000000000e-01,4.691453874111175537e-01
9.375000000000000000e-01,8.125000000000000000e-01,6.090912818908691406e-01
8.125000000000000000e-01,8.125000000000000000e-01,8.420012593269348145e-01
8.125000000000000000e-01,9.375000000000000000e-01,5.991032123565673828e-01
-6.250000000000000000e-02,8.125000000000000000e-01,7.820373773574829102e-01
-1.875000000000000000e-01,8.125000000000000000e-01,5.141390562057495117e-01
-1.875000000000000000e-01,9.375000000000000000e-01,3.074581921100616455e-01
-6.250000000000000000e-02,-1.875000000000000000e-01,8.415051698684692383e-01
-1.875000000000000000e-01,-1.875000000000000000e-01,7.536477446556091309e-01
-1.875000000000000000e-01,-6.250000000000000000e-02,5.455806851387023926e-01
9.375000000000000000e-01,-1.875000000000000000e-01,2.443819940090179443e-01
8.125000000000000000e-01,-1.875000000000000000e-01,3.326587378978729248e-01
8.125000000000000000e-01,-6.250000000000000000e-02,5.796554684638977051e-01
4.375000000000000000e-01,-1.875000000000000000e-01,7.868322730064392090e-01
3.125000000000000000e-01,-1.875000000000000000e-01,8.447918891906738281e-01
3.125000000000000000e-01,-6.250000000000000000e-02,5.200474858283996582e-01
4.375000000000000000e-01,-6.875000000000000000e-01,9.706539511680603027e-01
3.125000000000000000e-01,-6.875000000000000000e-01,8.918902873992919922e-01
3.125000000000000000e-01,-5.625000000000000000e-01,9.868952631950378418e-01
9.375000000000000000e-01,-6.875000000000000000e-01,4.813646674156188965e-01
8.125000000000000000e-01,-6.875000000000000000e-01,8.087559342384338379e-01
8.125000000000000000e-01,-5.625000000000000000e-01,8.485718965530395508e-01
-5.625000000000000000e-01,-1.875000000000000000e-01,1.000000000000000000e+00
-6.875000000000000000e-01,-1.875000000000000000e-01,9.808671474456787109e-01
-6.875000000000000000e-01,-6.250000000000000000e-02,9.918412566184997559e-01
-5.625000000000000000e-01,-6.875000000000000000e-01,8.026979565620422363e-01
-6.875000000000000000e-01,-6.875000000000000000e-01,5.570956468582153320e-01
-6.875000000000000000e-01,-5.625000000000000000e-01,7.844538092613220215e-01
-6.250000000000000000e-02,-6.875000000000000000e-01,8.996855616569519043e-01
-1.875000000000000000e-01,-6.875000000000000000e-01,9.533727765083312988e-01
-1.875000000000000000e-01,-5.625000000000000000e-01,9.985068440437316895e-01
-5.625000000000000000e-01,8.125000000000000000e-01,4.985059797763824463e-01
-6.875000000000000000e-01,8.125000000000000000e-01,4.090673923492431641e-01
-6.875000000000000000e-01,9.375000000000000000e-01,2.272948026657104492e-01
-5.625000000000000000e-01,3.125000000000000000e-01,9.961645603179931641e-01
-6.875000000000000000e-01,3.125000000000000000e-01,9.983436465263366699e-01
-6.875000000000000000e-01,4.375000000000000000e-01,9.926106333732604980e-01
-6.250000000000000000e-02,3.125000000000000000e-01,9.992697238922119141e-01
-1.875000000000000000e-01,3.125000000000000000e-01,9.990956783294677734e-01
-1.875000000000000000e-01,4.375000000000000000e-01,9.542840719223022461e-01
4.375000000000000000e-01,8.125000000000000000e-01,9.920563697814941406e-01
3.125000000000000000e-01,8.125000000000000000e-01,9.911274909973144531e-01
3.125000000000000000e-01,9.375000000000000000e-01,9.035359025001525879e-01
4.375000000000000000e-01,3.125000000000000000e-01,9.489467740058898926e-01
3.125000000000000000e-01,3.125000000000000000e-01,7.657927274703979492e-01
3.125000000000000000e-01,4.375000000000000000e-01,7.998853325843811035e-01
9.375000000000000000e-01,3.125000000000000000e-01,8.256338834762573242e-01
8.125000000000000000e-01,3.125000000000000000e-01,9.704399108886718750e-01
8.125000000000000000e-01,4.375000000000000000e-01,9.891124963760375977e-01
6.875000000000000000e-01,3.125000000000000000e-01,9.998534917831420898e-01
5.625000000000000000e-01,3.125000000000000000e-01,9.949760437011718750e-01
5.625000000000000000e-01,4.375000000000000000e-01,9.800615906715393066e-01
6.875000000000000000e-01,6.250000000000000000e-02,9.412623643875122070e-01
5.625000000000000000e-01,6.250000000000000000e-02,9.572717547416687012e-01
5.625000000000000000e-01,1.875000000000000000e-01,9.990226626396179199e-01
9.375000000000000000e-01,6.250000000000000000e-02,5.320369601249694824e-01
8.125000000000000000e-01,6.250000000000000000e-02,8.245749473571777344e-01
8.125000000000000000e-01,1.875000000000000000e-01,9.206690788269042969e-01
1.875000000000000000e-01,3.125000000000000000e-01,8.511295914649963379e-01
6.250000000000000000e-02,3.125000000000000000e-01,9.819760918617248535e-01
6.250000000000000000e-02,4.375000000000000000e-01,9.980837106704711914e-01
1.875000000000000000e-01,6.250000000000000000e-02,4.515089392662048340e-01
6.250000000000000000e-02,6.250000000000000000e-02,7.342743873596191406e-01
6.250000000000000000e-02,1.875000000000000000e-01,9.138434529304504395e-01
4.375000000000000000e-01,6.250000000000000000e-02,8.907678127288818359e-01
3.125000000000000000e-01,6.250000000000000000e-02,6.735251545906066895e-01
3.125000000000000000e-01,1.875000000000000000e-01,7.859964370727539062e-01
1.875000000000000000e-01,8.125000000000000000e-01,9.818902015686035156e-01
6.250000000000000000e-02,8.125000000000000000e-01,9.281616210937500000e-01
6.250000000000000000e-02,9.375000000000000000e-01,7.140524387359619141e-01
1.875000000000000000e-01,5.625000000000000000e-01,9.933063983917236328e-01
6.250000000000000000e-02,5.625000000000000000e-01,1.000000000000000000e+00
6.250000000000000000e-02,6.875000000000000000e-01,9.914334416389465332e-01
4.375000000000000000e-01,5.625000000000000000e-01,9.626199007034301758e-01
3.125000000000000000e-01,5.625000000000000000e-01,9.611561298370361328e-01
3.125000000000000000e-01,6.875000000000000000e-01,9.983214139938354492e-01
-3.125000000000000000e-01,3.125000000000000000e-01,1.000000000000000000e+00
-4.375000000000000000e-01,3.125000000000000000e-01,9.854067564010620117e-01
-4.375000000000000000e-01,4.375000000000000000e-01,9.997056722640991211e-01
-3.125000000000000000e-01,6.250000000000000000e-02,8.510268926620483398e-01
-4.375000000000000000e-01,6.250000000000000000e-02,9.047371149063110352e-01
-4.375000000000000000e-01,1.875000000000000000e-01,9.128320813179016113e-01
-6.250000000000000000e-02,6.250000000000000000e-02,8.559890389442443848e-01
-1.875000000000000000e-01,6.250000000000000000e-02,8.877949118614196777e-01
-1.875000000000000000e-01,1.875000000000000000e-01,9.933558702468872070e-01
-8.125000000000000000e-01,3.125000000000000000e-01,9.157701730728149414e-01
-9.375000000000000000e-01,3.125000000000000000e-01,5.811359286308288574e-01
-9.375000000000000000e-01,4.375000000000000000e-01,4.930319786071777344e-01
-8.125000000000000000e-01,6.250000000000000000e-02,9.043204188346862793e-01
-9.375000000000000000e-01,6.250000000000000000e-02,5.671367645263671875e-01
-9.375000000000000000e-01,1.875000000000000000e-01,5.867299437522888184e-01
-5.625000000000000000e-01,6.250000000000000000e-02,9.954731464385986328e-01
-6.875000000000000000e-01,6.250000000000000000e-02,9.947257041931152344e-01
-6.875000000000000000e-01,1.875000000000000000e-01,9.978374242782592773e-01
-8.125000000000000000e-01,8.125000000000000000e-01,2.799161672592163086e-01
-9.375000000000000000e-01,8.125000000000000000e-01,2.084504067897796631e-01
-9.375000000000000000e-01,9.375000000000000000e-01,1.999245136976242065e-01
-8.125000000000000000e-01,5.625000000000000000e-01,7.483688592910766602e-01
-9.375000000000000000e-01,5.625000000000000000e-01,3.901747465133666992e-01
-9.375000000000000000e-01,6.875000000000000000e-01,2.667191028594970703e-01
-5.625000000000000000e-01,5.625000000000000000e-01,9.936288595199584961e-01
-6.875000000000000000e-01,5.625000000000000000e-01,9.371675848960876465e-01
-6.875000000000000000e-01,6.875000000000000000e-01,7.728686928749084473e-01
-3.125000000000000000e-01,-6.875000000000000000e-01,9.449850916862487793e-01
-4.375000000000000000e-01,-6.875000000000000000e-01,9.239960312843322754e-01
-4.375000000000000000e-01,-5.625000000000000000e-01,9.908416867256164551e-01
-3.125000000000000000e-01,-9.375000000000000000e-01,3.613815307617187500e-01
-4.375000000000000000e-01,-9.375000000000000000e-01,3.250320255756378174e-01
-4.375000000000000000e-01,-8.125000000000000000e-01,6.657598018646240234e-01
-6.250000000000000000e-02,-9.375000000000000000e-01,3.086001276969909668e-01
-1.875000000000000000e-01,-9.375000000000000000e-01,3.693418502807617188e-01
-1.875000000000000000e-01,-8.125000000000000000e-01,7.390273809432983398e-01
-8.125000000000000000e-01,-6.875000000000000000e-01,3.036904931068420410e-01
-9.375000000000000000e-01,-6.875000000000000000e-01,2.103855907917022705e-01
-9.375000000000000000e-01,-5.625000000000000000e-01,2.523092329502105713e-01
-8.125000000000000000e-01,-9.375000000000000000e-01,1.992623507976531982e-01
-9.375000000000000000e-01,-9.375000000000000000e-01,1.990733444690704346e-01
-9.375000000000000000e-01,-8.125000000000000000e-01,2.001607120037078857e-01
-5.625000000000000000e-01,-9.375000000000000000e-01,2.650411128997802734e-01
-6.875000000000000000e-01,-9.375000000000000000e-01,2.130469977855682373e-01
-6.875000000000000000e-01,-8.125000000000000000e-01,3.139498233795166016e-01
-8.125000000000000000e-01,-1.875000000000000000e-01,8.143877983093261719e-01
-9.375000000000000000e-01,-1.875000000000000000e-01,4.380395710468292236e-01
-9.375000000000000000e-01,-6.250000000000000000e-02,5.205383896827697754e-01
-8.125000000000000000e-01,-4.375000000000000000e-01,6.168184876441955566e-01
-9.375000000000000000e-01,-4.375000000000000000e-01,3.012623488903045654e-01
-9.375000000000000000e-01,-3.125000000000000000e-01,3.554444313049316406e-01
-5.625000000000000000e-01,-4.375000000000000000e-01,9.951490163803100586e-01
-6.875000000000000000e-01,-4.375000000000000000e-01,9.170432686805725098e-01
-6.875000000000000000e-01,-3.125000000000000000e-01,9.606197476387023926e-01
6.875000000000000000e-01,-6.875000000000000000e-01,9.567404389381408691e-01
5.625000000000000000e-01,-6.875000000000000000e-01,9.910978078842163086e-01
5.625000000000000000e-01,-5.625000000000000000e-01,9.999915361404418945e-01
6.875000000000000000e-01,-9.375000000000000000e-01,5.358834266662597656e-01
5.625000000000000000e-01,-9.375000000000000000e-01,6.131556630134582520e-01
5.625000000000000000e-01,-8.125000000000000000e-01,8.958717584609985352e-01
9.375000000000000000e-01,-9.375000000000000000e-01,2.620109915733337402e-01
8.125000000000000000e-01,-9.375000000000000000e-01,3.831642270088195801e-01
8.125000000000000000e-01,-8.125000000000000000e-01,6.333534121513366699e-01
1.875000000000000000e-01,-6.875000000000000000e-01,8.104285597801208496e-01
6.250000000000000000e-02,-6.875000000000000000e-01,7.770243883132934570e-01
6.250000000000000000e-02,-5.625000000000000000e-01,9.624668955802917480e-01
1.875000000000000000e-01,-9.375000000000000000e-01,2.823972702026367188e-01
6.250000000000000000e-02,-9.375000000000000000e-01,2.545908987522125244e-01
6.250000000000000000e-02,-8.125000000000000000e-01,4.491181075572967529e-01
4.375000000000000000e-01,-9.375000000000000000e-01,5.619866847991943359e-01
3.125000000000000000e-01,-9.375000000000000000e-01,4.158750474452972412e-01
3.125000000000000000e-01,-8.125000000000000000e-01,6.904356479644775391e-01
1.875000000000000000e-01,-1.875000000000000000e-01,8.928920626640319824e-01
6.250000000000000000e-02,-1.875000000000000000e-01,8.955983519554138184e-01
6.250000000000000000e-02,-6.250000000000000000e-02,5.857415795326232910e-01
1.875000000000000000e-01,-4.375000000000000000e-01,9.999445676803588867e-01
6.250000000000000000e-02,-4.375000000000000000e-01,9.998563528060913086e-01
6.250000000000000000e-02,-3.125000000000000000e-01,9.933347105979919434e-01
4.375000000000000000e-01,-4.375000000000000000e-01,9.989857077598571777e-01
3.125000000000000000e-01,-4.375000000000000000e-01,1.000000000000000000e+00
3.125000000000000000e-01,-3.125000000000000000e-01,9.807744026184082031e-01
6.875000000000000000e-01,-1.875000000000000000e-01,4.905149340629577637e-01
5.625000000000000000e-01,-1.875000000000000000e-01,6.821805238723754883e-01
5.625000000000000000e-01,-6.250000000000000000e-02,7.735500335693359375e-01
6.875000000000000000e-01,-4.375000000000000000e-01,9.366244077682495117e-01
5.625000000000000000e-01,-4.375000000000000000e-01,9.810954928398132324e-01
5.625000000000000000e-01,-3.125000000000000000e-01,9.104720354080200195e-01
9.375000000000000000e-01,-4.375000000000000000e-01,4.537910223007202148e-01
8.125000000000000000e-01,-4.375000000000000000e-01,7.762576341629028320e-01
8.125000000000000000e-01,-3.125000000000000000e-01,5.618685483932495117e-01
-3.125000000000000000e-01,-1.875000000000000000e-01,7.905446290969848633e-01
-4.375000000000000000e-01,-1.875000000000000000e-01,9.687103629112243652e-01
-4.375000000000000000e-01,-6.250000000000000000e-02,9.402924180030822754e-01
-3.125000000000000000e-01,-4.375000000000000000e-01,9.920699000358581543e-01
-4.375000000000000000e-01,-4.375000000000000000e-01,9.998664259910583496e-01
-4.375000000000000000e-01,-3.125000000000000000e-01,9.895001053810119629e-01
-6.250000000000000000e-02,-4.375000000000000000e-01,1.000000000000000000e+00
-1.875000000000000000e-01,-4.375000000000000000e-01,9.968955516815185547e-01
-1.875000000000000000e-01,-3.125000000000000000e-01,9.318228960037231445e-01
-3.125000000000000000e-01,8.125000000000000000e-01,4.079640507698059082e-01
-4.375000000000000000e-01,8.125000000000000000e-01,4.793685078620910645e-01
-4.375000000000000000e-01,9.375000000000000000e-01,2.416255176067352295e-01
-3.125000000000000000e-01,5.625000000000000000e-01,9.444949030876159668e-01
-4.375000000000000000e-01,5.625000000000000000e-01,9.912581443786621094e-01
-4.375000000000000000e-01,6.875000000000000000e-01,8.622650504112243652e-01
-6.250000000000000000e-02,5.625000000000000000e-01,9.843906164169311523e-01
-1.875000000000000000e-01,5.625000000000000000e-01,8.839820623397827148e-01
-1.875000000000000000e-01,6.875000000000000000e-01,7.447474002838134766e-01
6.875000000000000000e-01,8.125000000000000000e-01,9.476302266120910645e-01
5.625000000000000000e-01,8.125000000000000000e-01,9.854221343994140625e-01
5.625000000000000000e-01,9.375000000000000000e-01,8.750788569450378418e-01
6.875000000000000000e-01,5.625000000000000000e-01,1.000000000000000000e+00
5.625000000000000000e-01,5.625000000000000000e-01,9.927704930305480957e-01
5.625000000000000000e-01,6.875000000000000000e-01,9.985569119453430176e-01
9.375000000000000000e-01,5.625000000000000000e-01,8.705942034721374512e-01
8.125000000000000000e-01,5.625000000000000000e-01,9.863577485084533691e-01
8.125000000000000000e-01,6.875000000000000000e-01,9.532777667045593262e-01
9.375000000000000000e-01,6.875000000000000000e-01,8.128523826599121094e-01
6.875000000000000000e-01,6.875000000000000000e-01,9.956064820289611816e-01
6.875000000000000000e-01,9.375000000000000000e-01,7.557576298713684082e-01
-6.250000000000000000e-02,6.875000000000000000e-01,9.385731220245361328e-01
-3.125000000000000000e-01,6.875000000000000000e-01,7.755587100982666016e-01
-3.125000000000000000e-01,9.375000000000000000e-01,2.271742224693298340e-01
-6.250000000000000000e-02,-3.125000000000000000e-01,9.824898242950439453e-01
-3.125000000000000000e-01,-3.125000000000000000e-01,8.985378742218017578e-01
-3.125000000000000000e-01,-6.250000000000000000e-02,6.827071309089660645e-01
9.375000000000000000e-01,-3.125000000000000000e-01,3.343012630939483643e-01
6.875000000000000000e-01,-3.125000000000000000e-01,7.725529670715332031e-01
6.875000000000000000e-01,-6.250000000000000000e-02,7.463374733924865723e-01
4.375000000000000000e-01,-3.125000000000000000e-01,9.490518569946289062e-01
1.875000000000000000e-01,-3.125000000000000000e-01,9.923608899116516113e-01
1.875000000000000000e-01,-6.250000000000000000e-02,5.863293409347534180e-01
4.375000000000000000e-01,-8.125000000000000000e-01,8.580307960510253906e-01
1.875000000000000000e-01,-8.125000000000000000e-01,4.821309149265289307e-01
1.875000000000000000e-01,-5.625000000000000000e-01,9.682827591896057129e-01
9.375000000000000000e-01,-8.125000000000000000e-01,3.662533462047576904e-01
6.875000000000000000e-01,-8.125000000000000000e-01,8.358202576637268066e-01
6.875000000000000000e-01,-5.625000000000000000e-01,9.795416593551635742e-01
-5.625000000000000000e-01,-3.125000000000000000e-01,9.996353983879089355e-01
-8.125000000000000000e-01,-3.125000000000000000e-01,7.389171123504638672e-01
-8.125000000000000000e-01,-6.250000000000000000e-02,8.762729763984680176e-01
-5.625000000000000000e-01,-8.125000000000000000e-01,4.752790927886962891e-01
-8.125000000000000000e-01,-8.125000000000000000e-01,2.239730656147003174e-01
-8.125000000000000000e-01,-5.625000000000000000e-01,4.631888270378112793e-01
-6.250000000000000000e-02,-8.125000000000000000e-01,6.025308370590209961e-01
-3.125000000000000000e-01,-8.125000000000000000e-01,7.235652208328247070e-01
-3.125000000000000000e-01,-5.625000000000000000e-01,9.988625049591064453e-01
-5.625000000000000000e-01,6.875000000000000000e-01,8.761293292045593262e-01
-8.125000000000000000e-01,6.875000000000000000e-01,4.733152389526367188e-01
-8.125000000000000000e-01,9.375000000000000000e-01,2.047526836395263672e-01
-5.625000000000000000e-01,1.875000000000000000e-01,9.948678612709045410e-01
-8.125000000000000000e-01,1.875000000000000000e-01,9.162534475326538086e-01
-8.125000000000000000e-01,4.375000000000000000e-01,8.716664910316467285e-01
-6.250000000000000000e-02,1.875000000000000000e-01,9.860104322433471680e-01
-3.125000000000000000e-01,1.875000000000000000e-01,9.755283594131469727e-01
-3.125000000000000000e-01,4.375000000000000000e-01,9.961800575256347656e-01
4.375000000000000000e-01,6.875000000000000000e-01,9.979475736618041992e-01
1.875000000000000000e-01,6.875000000000000000e-01,9.988617897033691406e-01
1.875000000000000000e-01,9.375000000000000000e-01,8.575832843780517578e-01
4.375000000000000000e-01,1.875000000000000000e-01,9.608086943626403809e-01
1.875000000000000000e-01,1.875000000000000000e-01,6.993426680564880371e-01
1.875000000000000000e-01,4.375000000000000000e-01,9.398939609527587891e-01
9.375000000000000000e-01,1.875000000000000000e-01,7.307279109954833984e-01
6.875000000000000000e-01,1.875000000000000000e-01,9.932447075843811035e-01
6.875000000000000000e-01,4.375000000000000000e-01,1.000000000000000000e+00
9.375000000000000000e-01,4.375000000000000000e-01,8.838246464729309082e-01
4.375000000000000000e-01,4.375000000000000000e-01,8.717857599258422852e-01
4.375000000000000000e-01,9.375000000000000000e-01,9.055284261703491211e-01
-6.250000000000000000e-02,4.375000000000000000e-01,9.978074431419372559e-01
-5.625000000000000000e-01,4.375000000000000000e-01,9.989084005355834961e-01
-5.625000000000000000e-01,9.375000000000000000e-01,2.456141114234924316e-01
-6.250000000000000000e-02,-5.625000000000000000e-01,9.894744753837585449e-01
-5.625000000000000000e-01,-5.625000000000000000e-01,9.571357965469360352e-01
-5.625000000000000000e-01,-6.250000000000000000e-02,9.993892908096313477e-01
9.375000000000000000e-01,-5.625000000000000000e-01,5.216773152351379395e-01
4.375000000000000000e-01,-5.625000000000000000e-01,9.980394244194030762e-01
4.375000000000000000e-01,-6.250000000000000000e-02,6.665896177291870117e-01
9.375000000000000000e-01,-6.250000000000000000e-02,3.599803447723388672e-01
-6.250000000000000000e-02,-6.250000000000000000e-02,5.113939642906188965e-01
-6.250000000000000000e-02,9.375000000000000000e-01,5.017770528793334961e-01
9.375000000000000000e-01,9.375000000000000000e-01,3.730409145355224609e-01
-1.000000000000000000e+00,-9.687500000000000000e-01,1.968667954206466675e-01
9.687500000000000000e-01,-1.000000000000000000e+00,2.157673686742782593e-01
1.000000000000000000e+00,9.687500000000000000e-01,2.700470089912414551e-01
-9.687500000000000000e-01,1.000000000000000000e+00,1.998991072177886963e-01
-1.000000000000000000e+00,3.125000000000000000e-02,3.664022684097290039e-01
-3.125000000000000000e-02,-1.000000000000000000e+00,2.315396219491958618e-01
1.000000000000000000e+00,-3.125000000000000000e-02,3.088118433952331543e-01
3.125000000000000000e-02,1.000000000000000000e+00,4.960656762123107910e-01
0.000000000000000000e+00,9.687500000000000000e-01,5.179742574691772461e-01
0.000000000000000000e+00,-3.125000000000000000e-02,5.509555339813232422e-01
-9.687500000000000000e-01,0.000000000000000000e+00,4.493491351604461670e-01
3.125000000000000000e-02,0.000000000000000000e+00,6.111099720001220703e-01
-1.000000000000000000e+00,-4.687500000000000000e-01,2.257148772478103638e-01
4.687500000000000000e-01,-1.000000000000000000e+00,4.181814193725585938e-01
1.000000000000000000e+00,4.687500000000000000e-01,7.589385509490966797e-01
-4.687500000000000000e-01,1.000000000000000000e+00,2.064426243305206299e-01
-1.000000000000000000e+00,5.312500000000000000e-01,2.959641218185424805e-01
-5.312500000000000000e-01,-1.000000000000000000e+00,2.260612994432449341e-01
1.000000000000000000e+00,-5.312500000000000000e-01,3.656751513481140137e-01
5.312500000000000000e-01,1.000000000000000000e+00,7.589737772941589355e-01
0.000000000000000000e+00,4.687500000000000000e-01,1.000000000000000000e+00
0.000000000000000000e+00,-5.312500000000000000e-01,9.887799620628356934e-01
-4.687500000000000000e-01,0.000000000000000000e+00,9.502342343330383301e-01
5.312500000000000000e-01,0.000000000000000000e+00,8.804373145103454590e-01
5.000000000000000000e-01,-3.125000000000000000e-02,8.084536194801330566e-01
5.000000000000000000e-01,-5.312500000000000000e-01,9.980992674827575684e-01
3.125000000000000000e-02,-5.000000000000000000e-01,9.914079904556274414e-01
5.312500000000000000e-01,-5.000000000000000000e-01,9.966434240341186523e-01
-5.000000000000000000e-01,-3.125000000000000000e-02,9.825763106346130371e-01
-5.000000000000000000e-01,-5.312500000000000000e-01,9.936733841896057129e-01
-9.687500000000000000e-01,-5.000000000000000000e-01,2.432218492031097412e-01
-4.687500000000000000e-01,-5.000000000000000000e-01,9.994642734527587891e-01
-5.000000000000000000e-01,9.687500000000000000e-01,2.202699035406112671e-01
-5.000000000000000000e-01,4.687500000000000000e-01,9.991382956504821777e-01
-9.687500000000000000e-01,5.000000000000000000e-01,3.712525963783264160e-01
-4.687500000000000000e-01,5.000000000000000000e-01,9.995928406715393066e-01
5.000000000000000000e-01,9.687500000000000000e-01,8.335043787956237793e-01
5.000000000000000000e-01,4.687500000000000000e-01,9.317259192466735840e-01
3.125000000000000000e-02,5.000000000000000000e-01,9.998036623001098633e-01
5.312500000000000000e-01,5.000000000000000000e-01,9.580510854721069336e-01
-1.000000000000000000e+00,-7.187500000000000000e-01,1.988295018672943115e-01
7.187500000000000000e-01,-1.000000000000000000e+00,3.653576970100402832e-01
1.000000000000000000e+00,7.187500000000000000e-01,6.268783807754516602e-01
-7.187500000000000000e-01,1.000000000000000000e+00,2.018695622682571411e-01
-1.000000000000000000e+00,2.812500000000000000e-01,3.802008926868438721e-01
-2.812500000000000000e-01,-1.000000000000000000e+00,2.706487476825714111e-01
1.000000000000000000e+00,-2.812500000000000000e-01,2.508593797683715820e-01
2.812500000000000000e-01,1.000000000000000000e+00,7.711684703826904297e-01
0.000000000000000000e+00,7.187500000000000000e-01,9.500988125801086426e-01
0.000000000000000000e+00,-2.812500000000000000e-01,9.733096957206726074e-01
-7.187500000000000000e-01,0.000000000000000000e+00,9.883562326431274414e-01
2.812500000000000000e-01,0.000000000000000000e+00,4.906959831714630127e-01
-1.000000000000000000e+00,-2.187500000000000000e-01,2.887032330036163330e-01
2.187500000000000000e-01,-1.000000000000000000e+00,2.559250593185424805e-01
1.000000000000000000e+00,2.187500000000000000e-01,5.963092446327209473e-01
-2.187500000000000000e-01,1.000000000000000000e+00,2.351233363151550293e-01
-1.000000000000000000e+00,7.812500000000000000e-01,2.002374231815338135e-01
-7.812500000000000000e-01,-1.000000000000000000e+00,1.982301026582717896e-01
1.000000000000000000e+00,-7.812500000000000000e-01,3.007268309593200684e-01
7.812500000000000000e-01,1.000000000000000000e+00,4.834673404693603516e-01
0.000000000000000000e+00,2.187500000000000000e-01,9.785237908363342285e-01
0.000000000000000000e+00,-7.812500000000000000e-01,6.314325332641601562e-01
-2.187500000000000000e-01,0.000000000000000000e+00,7.541944384574890137e-01
7.812500000000000000e-01,0.000000000000000000e+00,7.763017416000366211e-01
5.000000000000000000e-01,-2.812500000000000000e-01,9.074771404266357422e-01
5.000000000000000000e-01,-7.812500000000000000e-01,9.267482757568359375e-01
2.812500000000000000e-01,-5.000000000000000000e-01,9.982799291610717773e-01
7.812500000000000000e-01,-5.000000000000000000e-01,8.789068460464477539e-01
-5.000000000000000000e-01,-2.812500000000000000e-01,9.992229938507080078e-01
-5.000000000000000000e-01,-7.812500000000000000e-01,6.767169237136840820e-01
-7.187500000000000000e-01,-5.000000000000000000e-01,8.192639350891113281e-01
-2.187500000000000000e-01,-5.000000000000000000e-01,9.996402859687805176e-01
-5.000000000000000000e-01,7.187500000000000000e-01,8.006756305694580078e-01
-5.000000000000000000e-01,2.187500000000000000e-01,9.663813710212707520e-01
-7.187500000000000000e-01,5.000000000000000000e-01,9.570885300636291504e-01
-2.187500000000000000e-01,5.000000000000000000e-01,9.172723293304443359e-01
5.000000000000000000e-01,7.187500000000000000e-01,1.000000000000000000e+00
5.000000000000000000e-01,2.187500000000000000e-01,9.929830431938171387e-01
2.812500000000000000e-01,5.000000000000000000e-01,9.198346138000488281e-01
7.812500000000000000e-01,5.000000000000000000e-01,9.930542707443237305e-01
7.500000000000000000e-01,4.687500000000000000e-01,9.989790320396423340e-01
7.500000000000000000e-01,2.187500000000000000e-01,9.755148291587829590e-01
5.312500000000000000e-01,2.500000000000000000e-01,9.978316426277160645e-01
7.812500000000000000e-01,2.500000000000000000e-01,9.746534228324890137e-01
2.500000000000000000e-01,4.687500000000000000e-01,9.098634123802185059e-01
2.500000000000000000e-01,2.187500000000000000e-01,6.208844184875488281e-01
3.125000000000000000e-02,2.500000000000000000e-01,9.690809249877929688e-01
2.812500000000000000e-01,2.500000000000000000e-01,7.125227451324462891e-01
2.500000000000000000e-01,9.687500000000000000e-01,8.137597441673278809e-01
2.500000000000000000e-01,7.187500000000000000e-01,1.000000000000000000e+00
3.125000000000000000e-02,7.500000000000000000e-01,9.578773379325866699e-01
2.812500000000000000e-01,7.500000000000000000e-01,9.991972446441650391e-01
-2.500000000000000000e-01,4.687500000000000000e-01,9.635070562362670898e-01
-2.500000000000000000e-01,2.187500000000000000e-01,9.977656006813049316e-01
-4.687500000000000000e-01,2.500000000000000000e-01,9.303687214851379395e-01
-2.187500000000000000e-01,2.500000000000000000e-01,9.999709129333496094e-01
-7.500000000000000000e-01,4.687500000000000000e-01,9.466460347175598145e-01
-7.500000000000000000e-01,2.187500000000000000e-01,9.794368743896484375e-01
-9.687500000000000000e-01,2.500000000000000000e-01,4.750358462333679199e-01
-7.187500000000000000e-01,2.500000000000000000e-01,9.906254410743713379e-01
-7.500000000000000000e-01,9.687500000000000000e-01,2.045756727457046509e-01
-7.500000000000000000e-01,7.187500000000000000e-01,5.570905208587646484e-01
-9.687500000000000000e-01,7.500000000000000000e-01,2.126121670007705688e-01
-7.187500000000000000e-01,7.500000000000000000e-01,5.356072783470153809e-01
-2.500000000000000000e-01,-5.312500000000000000e-01,1.000000000000000000e+00
-2.500000000000000000e-01,-7.812500000000000000e-01,8.279453516006469727e-01
-4.687500000000000000e-01,-7.500000000000000000e-01,7.992967367172241211e-01
-2.187500000000000000e-01,-7.500000000000000000e-01,8.853408694267272949e-01
-7.500000000000000000e-01,-5.312500000000000000e-01,6.988521814346313477e-01
-7.500000000000000000e-01,-7.812500000000000000e-01,2.900467514991760254e-01
-9.687500000000000000e-01,-7.500000000000000000e-01,2.000039815902709961e-01
-7.187500000000000000e-01,-7.500000000000000000e-01,3.680398464202880859e-01
-7.500000000000000000e-01,-3.125000000000000000e-02,9.652183055877685547e-01
-7.500000000000000000e-01,-2.812500000000000000e-01,8.880847096443176270e-01
-9.687500000000000000e-01,-2.500000000000000000e-01,3.265599310398101807e-01
-7.187500000000000000e-01,-2.500000000000000000e-01,9.422941207885742188e-01
7.500000000000000000e-01,-5.312500000000000000e-01,9.279805421829223633e-01
7.500000000000000000e-01,-7.812500000000000000e-01,8.086623549461364746e-01
5.312500000000000000e-01,-7.500000000000000000e-01,9.597653150558471680e-01
7.812500000000000000e-01,-7.500000000000000000e-01,8.016530275344848633e-01
2.500000000000000000e-01,-5.312500000000000000e-01,9.901520013809204102e-01
2.500000000000000000e-01,-7.812500000000000000e-01,6.358708143234252930e-01
3.125000000000000000e-02,-7.500000000000000000e-01,6.702328920364379883e-01
2.812500000000000000e-01,-7.500000000000000000e-01,7.578988671302795410e-01
2.500000000000000000e-01,-3.125000000000000000e-02,4.760922789573669434e-01
2.500000000000000000e-01,-2.812500000000000000e-01,9.732992053031921387e-01
3.125000000000000000e-02,-2.500000000000000000e-01,9.601885080337524414e-01
2.812500000000000000e-01,-2.500000000000000000e-01,9.393063783645629883e-01
7.500000000000000000e-01,-3.125000000000000000e-02,7.559671998023986816e-01
7.500000000000000000e-01,-2.812500000000000000e-01,6.087662577629089355e-01
5.312500000000000000e-01,-2.500000000000000000e-01,8.476027846336364746e-01
7.812500000000000000e-01,-2.500000000000000000e-01,4.810403585433959961e-01
-2.500000000000000000e-01,-3.125000000000000000e-02,6.492673158645629883e-01
-2.500000000000000000e-01,-2.812500000000000000e-01,8.539608120918273926e-01
-4.687500000000000000e-01,-2.500000000000000000e-01,9.940986633300781250e-01
-2.187500000000000000e-01,-2.500000000000000000e-01,8.293896317481994629e-01
-2.500000000000000000e-01,9.687500000000000000e-01,2.328361570835113525e-01
-2.500000000000000000e-01,7.187500000000000000e-01,5.705441832542419434e-01
-4.687500000000000000e-01,7.500000000000000000e-01,6.939571499824523926e-01
-2.187500000000000000e-01,7.500000000000000000e-01,5.598194003105163574e-01
7.500000000000000000e-01,9.687500000000000000e-01,6.093804240226745605e-01
7.500000000000000000e-01,7.187500000000000000e-01,9.674795866012573242e-01
5.312500000000000000e-01,7.500000000000000000e-01,9.992377758026123047e-01
7.812500000000000000e-01,7.500000000000000000e-01,9.304625988006591797e-01
-1.000000000000000000e+00,-8.437500000000000000e-01,1.996806710958480835e-01
8.437500000000000000e-01,-1.000000000000000000e+00,2.773115038871765137e-01
1.000000000000000000e+00,8.437500000000000000e-01,4.203223586082458496e-01
-8.437500000000000000e-01,1.000000000000000000e+00,1.999971270561218262e-01
-1.000000000000000000e+00,1.562500000000000000e-01,3.801451325416564941e-01
-1.562500000000000000e-01,-1.000000000000000000e+00,2.647663950920104980e-01
1.000000000000000000e+00,-1.562500000000000000e-01,2.296219766139984131e-01
1.562500000000000000e-01,1.000000000000000000e+00,6.871992349624633789e-01
0.000000000000000000e+00,8.437500000000000000e-01,8.328425288200378418e-01
0.000000000000000000e+00,-1.562500000000000000e-01,8.255983591079711914e-01
-8.437500000000000000e-01,0.000000000000000000e+00,8.447062969207763672e-01
1.562500000000000000e-01,0.000000000000000000e+00,4.047252535820007324e-01
-1.000000000000000000e+00,-3.437500000000000000e-01,2.531574070453643799e-01
3.437500000000000000e-01,-1.000000000000000000e+00,3.395319581031799316e-01
1.000000000000000000e+00,3.437500000000000000e-01,7.189133763313293457e-01
-3.437500000000000000e-01,1.000000000000000000e+00,2.043979316949844360e-01
-1.000000000000000000e+00,6.562500000000000000e-01,2.324845492839813232e-01
-6.562500000000000000e-01,-1.000000000000000000e+00,2.029177993535995483e-01
1.000000000000000000e+00,-6.562500000000000000e-01,3.583844304084777832e-01
6.562500000000000000e-01,1.000000000000000000e+00,6.521216630935668945e-01
0.000000000000000000e+00,3.437500000000000000e-01,9.990047216415405273e-01
0.000000000000000000e+00,-6.562500000000000000e-01,8.919422030448913574e-01
-3.437500000000000000e-01,0.000000000000000000e+00,7.265681028366088867e-01
6.562500000000000000e-01,0.000000000000000000e+00,8.843278884887695312e-01
5.000000000000000000e-01,-1.562500000000000000e-01,6.426717042922973633e-01
5.000000000000000000e-01,-6.562500000000000000e-01,9.951041936874389648e-01
1.562500000000000000e-01,-5.000000000000000000e-01,9.933792352676391602e-01
6.562500000000000000e-01,-5.000000000000000000e-01,9.823032021522521973e-01
-5.000000000000000000e-01,-1.562500000000000000e-01,9.955225586891174316e-01
-5.000000000000000000e-01,-6.562500000000000000e-01,9.044651985168457031e-01
-8.437500000000000000e-01,-5.000000000000000000e-01,4.594799876213073730e-01
-3.437500000000000000e-01,-5.000000000000000000e-01,9.999501705169677734e-01
-5.000000000000000000e-01,8.437500000000000000e-01,3.991039991378784180e-01
-5.000000000000000000e-01,3.437500000000000000e-01,9.730738997459411621e-01
-8.437500000000000000e-01,5.000000000000000000e-01,7.589735388755798340e-01
-3.437500000000000000e-01,5.000000000000000000e-01,9.867634773254394531e-01
5.000000000000000000e-01,8.437500000000000000e-01,9.786206483840942383e-01
5.000000000000000000e-01,3.437500000000000000e-01,9.717922210693359375e-01
1.562500000000000000e-01,5.000000000000000000e-01,9.867518544197082520e-01
6.562500000000000000e-01,5.000000000000000000e-01,9.980181455612182617e-01
-1.000000000000000000e+00,-5.937500000000000000e-01,2.073003947734832764e-01
5.937500000000000000e-01,-1.000000000000000000e+00,4.307380318641662598e-01
1.000000000000000000e+00,5.937500000000000000e-01,7.340890169143676758e-01
-5.937500000000000000e-01,1.000000000000000000e+00,2.066885530948638916e-01
-1.000000000000000000e+00,4.062500000000000000e-01,3.557262420654296875e-01
-4.062500000000000000e-01,-1.000000000000000000e+00,2.506891489028930664e-01
1.000000000000000000e+00,-4.062500000000000000e-01,3.162444233894348145e-01
4.062500000000000000e-01,1.000000000000000000e+00,8.077443838119506836e-01
0.000000000000000000e+00,5.937500000000000000e-01,9.967402219772338867e-01
0.000000000000000000e+00,-4.062500000000000000e-01,9.989947676658630371e-01
-5.937500000000000000e-01,0.000000000000000000e+00,9.997512102127075195e-01
4.062500000000000000e-01,0.000000000000000000e+00,7.607107758522033691e-01
-1.000000000000000000e+00,-9.375000000000000000e-02,3.339757323265075684e-01
9.375000000000000000e-02,-1.000000000000000000e+00,2.092946767807006836e-01
1.000000000000000000e+00,9.375000000000000000e-02,4.343319833278656006e-01
-9.375000000000000000e-02,1.000000000000000000e+00,3.344684243202209473e-01
-1.000000000000000000e+00,9.062500000000000000e-01,1.999890804290771484e-01
-9.062500000000000000e-01,-1.000000000000000000e+00,1.962482184171676636e-01
1.000000000000000000e+00,-9.062500000000000000e-01,2.370514571666717529e-01
9.062500000000000000e-01,1.000000000000000000e+00,3.304863274097442627e-01
0.000000000000000000e+00,9.375000000000000000e-02,8.727961778640747070e-01
0.000000000000000000e+00,-9.062500000000000000e-01,3.215979635715484619e-01
-9.375000000000000000e-02,0.000000000000000000e+00,7.088145613670349121e-01
9.062500000000000000e-01,0.000000000000000000e+00,5.139596462249755859e-01
5.000000000000000000e-01,-4.062500000000000000e-01,9.914636015892028809e-01
5.000000000000000000e-01,-9.062500000000000000e-01,6.954230070114135742e-01
4.062500000000000000e-01,-5.000000000000000000e-01,9.998177289962768555e-01
9.062500000000000000e-01,-5.000000000000000000e-01,5.899852514266967773e-01
-5.000000000000000000e-01,-4.062500000000000000e-01,9.998694658279418945e-01
-5.000000000000000000e-01,-9.062500000000000000e-01,3.468600809574127197e-01
-5.937500000000000000e-01,-5.000000000000000000e-01,9.605832099914550781e-01
-9.375000000000000000e-02,-5.000000000000000000e-01,9.993718862533569336e-01
-5.000000000000000000e-01,5.937500000000000000e-01,9.775112271308898926e-01
-5.000000000000000000e-01,9.375000000000000000e-02,9.679047465324401855e-01
-5.937500000000000000e-01,5.000000000000000000e-01,9.985556602478027344e-01
-9.375000000000000000e-02,5.000000000000000000e-01,9.874271154403686523e-01
5.000000000000000000e-01,5.937500000000000000e-01,9.873135685920715332e-01
5.000000000000000000e-01,9.375000000000000000e-02,9.596589207649230957e-01
4.062500000000000000e-01,5.000000000000000000e-01,8.857599496841430664e-01
9.062500000000000000e-01,5.000000000000000000e-01,9.155011177062988281e-01
7.500000000000000000e-01,3.437500000000000000e-01,9.950039982795715332e-01
7.500000000000000000e-01,9.375000000000000000e-02,9.269918203353881836e-01
6.562500000000000000e-01,2.500000000000000000e-01,9.986886382102966309e-01
